{"learner":{"attributes":{"best_iteration":"74","best_score":"0.08250666290354147"},"feature_names":["mean radius","mean texture","mean perimeter","mean area","mean smoothness","mean compactness","mean concavity","mean concave points","mean symmetry","mean fractal dimension","radius error","texture error","perimeter error","area error","smoothness error","compactness error","concavity error","concave points error","symmetry error","fractal dimension error","worst radius","worst texture","worst perimeter","worst area","worst smoothness","worst compactness","worst concavity","worst concave points","worst symmetry","worst fractal dimension"],"feature_types":["float","float","float","float","float","float","float","float","float","float","float","float","float","float","float","float","float","float","float","float","float","float","float","float","float","float","float","float","float","float"],"gradient_booster":{"model":{"cats":{"enc":[],"feature_segments":[],"sorted_idx":[]},"gbtree_model_param":{"num_parallel_tree":"1","num_trees":"90"},"iteration_indptr":[0,1,2,3,4,5,6,7,8,9,10,11,12,13,14,15,16,17,18,19,20,21,22,23,24,25,26,27,28,29,30,31,32,33,34,35,36,37,38,39,40,41,42,43,44,45,46,47,48,49,50,51,52,53,54,55,56,57,58,59,60,61,62,63,64,65,66,67,68,69,70,71,72,73,74,75,76,77,78,79,80,81,82,83,84,85,86,87,88,89,90],"tree_info":[0,0,0,0,0,0,0,0,0,0,0,0,0,0,0,0,0,0,0,0,0,0,0,0,0,0,0,0,0,0,0,0,0,0,0,0,0,0,0,0,0,0,0,0,0,0,0,0,0,0,0,0,0,0,0,0,0,0,0,0,0,0,0,0,0,0,0,0,0,0,0,0,0,0,0,0,0,0,0,0,0,0,0,0,0,0,0,0,0,0],"trees":[{"base_weights":[-1.6357798E-2,1.1662474E0,-2.3722556E0,1.5028353E0,-1.0075909E0,8.147515E-2,-2.5400347E-1,1.5613483E-1,-0E0,3.6328435E-1,-1.7995013E0,9.534444E-2,-4.754828E-2,-4.754828E-2,-2.0272191E-1],"categories":[],"categories_nodes":[],"categories_segments":[],"categories_sizes":[],"default_left":[0,0,0,0,0,0,0,0,0,0,0,0,0,0,0],"id":0,"left_children":[1,3,5,7,9,-1,-1,-1,-1,11,13,-1,-1,-1,-1],"loss_changes":[2.4040392E2,4.3563484E1,1.7668259E1,4.4267807E0,9.758979E0,0E0,0E0,0E0,0E0,2.386305E0,4.279747E-1,0E0,0E0,0E0,0E0],"parents":[2147483647,0,0,1,1,2,2,3,3,4,4,9,9,10,10],"right_children":[2,4,6,8,10,-1,-1,-1,-1,12,14,-1,-1,-1,-1],"split_conditions":[1.684E1,1.357E-1,4.757E-1,3.887E1,2.553E1,8.147515E-2,-2.5400347E-1,1.5613483E-1,-0E0,7.346E2,1.152E-1,9.534444E-2,-4.754828E-2,-4.754828E-2,-2.0272191E-1],"split_indices":[20,27,11,13,21,0,0,0,0,23,5,0,0,0,0],"split_type":[0,0,0,0,0,0,0,0,0,0,0,0,0,0,0],"sum_hessian":[8.425069E1,5.6401157E1,2.7849533E1,4.9146236E1,7.2549205E0,1.1701485E0,2.6679386E1,4.7274E1,1.8722376E0,2.8083563E0,4.446564E0,1.6382079E0,1.1701485E0,1.1701485E0,3.2764158E0],"tree_param":{"num_deleted":"0","num_feature":"30","num_nodes":"15","size_leaf_vector":"1"}},{"base_weights":[-2.7869085E-2,1.1243714E0,-2.063761E0,1.3685013E0,-1.3234777E0,3.5191286E-2,-2.1738103E-1,1.4039867E0,-1.4684821E-3,-0E0,-1.7281519E-1,1.4412902E-1,1.4753181E-2],"categories":[],"categories_nodes":[],"categories_segments":[],"categories_sizes":[],"default_left":[0,0,0,0,0,0,0,0,0,0,0,0,0],"id":1,"left_children":[1,3,5,7,9,-1,-1,11,-1,-1,-1,-1,-1],"loss_changes":[2.0006218E2,3.433654E1,9.144455E0,2.6143417E0,3.057271E0,0E0,0E0,1.9177551E0,0E0,0E0,0E0,0E0,0E0],"parents":[2147483647,0,0,1,1,2,2,3,3,4,4,7,7],"right_children":[2,4,6,8,10,-1,-1,12,-1,-1,-1,-1,-1],"split_conditions":[1.456E-1,9.282E2,3.727E2,6.107E-1,1.992E-1,3.5191286E-2,-2.1738103E-1,1.204E-1,-1.4684821E-3,-0E0,-1.7281519E-1,1.4412902E-1,1.4753181E-2],"split_indices":[27,23,3,10,26,0,0,6,0,0,0,0,0],"split_type":[0,0,0,0,0,0,0,0,0,0,0,0,0],"sum_hessian":[8.3254715E1,5.3419712E1,2.9835001E1,4.9013287E1,4.406424E0,1.1646001E0,2.86704E1,4.784314E1,1.1701485E0,1.2118517E0,3.1945722E0,4.62435E1,1.5996411E0],"tree_param":{"num_deleted":"0","num_feature":"30","num_nodes":"13","size_leaf_vector":"1"}},{"base_weights":[-1.52175E-2,1.3284307E0,-1.5428367E0,1.3836126E-1,1.2528843E-2,5.829636E-1,-1.857094E0,1.1417854E-1,-7.738847E-2,7.928047E-3,-1.9774377E0,-4.6758085E-2,-2.014577E-1],"categories":[],"categories_nodes":[],"categories_segments":[],"categories_sizes":[],"default_left":[0,0,0,0,0,0,0,0,0,0,0,0,0],"id":2,"left_children":[1,3,5,-1,-1,7,9,-1,-1,-1,11,-1,-1],"loss_changes":[1.7062689E2,2.6098022E0,2.7214577E1,0E0,0E0,5.2677035E0,8.314529E0,0E0,0E0,0E0,6.1985016E-1,0E0,0E0],"parents":[2147483647,0,0,1,1,2,2,5,5,6,6,10,10],"right_children":[2,4,6,-1,-1,8,10,-1,-1,-1,12,-1,-1],"split_conditions":[1.108E-1,4.051E1,7.114E2,1.3836126E-1,1.2528843E-2,1.599E-1,1.997E1,1.1417854E-1,-7.738847E-2,7.928047E-3,4.083E-2,-4.6758085E-2,-2.014577E-1],"split_indices":[27,13,23,0,0,27,21,0,0,0,7,0,0],"split_type":[0,0,0,0,0,0,0,0,0,0,0,0,0],"sum_hessian":[8.1118935E1,4.3192787E1,3.792615E1,4.1075737E1,2.1170502E0,4.73344E0,3.319271E1,3.51711E0,1.2163298E0,1.913533E0,3.1279179E1,1.1418262E0,3.0137352E1],"tree_param":{"num_deleted":"0","num_feature":"30","num_nodes":"13","size_leaf_vector":"1"}},{"base_weights":[-2.8609255E-2,1.117779E0,-1.5593637E0,1.2530769E0,-5.8667487E-1,2.3752668E-1,-1.7426106E0,1.2919445E0,-8.063902E-3,2.502724E-2,-1.2798302E-1,9.399012E-2,-7.621211E-2,-3.374819E-2,-1.7817943E-1,1.6232297E-2,1.312995E-1],"categories":[],"categories_nodes":[],"categories_segments":[],"categories_sizes":[],"default_left":[0,0,0,0,0,0,0,0,0,0,0,0,0,0,0,0,0],"id":3,"left_children":[1,3,5,7,9,11,13,15,-1,-1,-1,-1,-1,-1,-1,-1,-1],"loss_changes":[1.4581284E2,1.1749634E1,1.2286537E1,2.5246353E0,2.8122745E0,3.6296966E0,9.7481537E-1,6.673279E-1,0E0,0E0,0E0,0E0,0E0,0E0,0E0,0E0,0E0],"parents":[2147483647,0,0,1,1,2,2,3,3,4,4,5,5,6,6,7,7],"right_children":[2,4,6,8,10,12,14,16,-1,-1,-1,-1,-1,-1,-1,-1,-1],"split_conditions":[4.938E-2,1.684E1,1.034E2,5.462E-1,1.948E1,1.682E-1,2.26E-1,3.308E-3,-8.063902E-3,2.502724E-2,-1.2798302E-1,9.399012E-2,-7.621211E-2,-3.374819E-2,-1.7817943E-1,1.6232297E-2,1.312995E-1],"split_indices":[7,20,22,10,1,5,26,14,0,0,0,0,0,0,0,0,0],"split_type":[0,0,0,0,0,0,0,0,0,0,0,0,0,0,0,0,0],"sum_hessian":[8.107343E1,4.6473614E1,3.459982E1,4.335558E1,3.1180315E0,3.1240404E0,3.1475779E1,4.2231163E1,1.1244179E0,1.6365983E0,1.4814333E0,1.9286977E0,1.1953425E0,1.1839567E0,3.0291822E1,1.0188434E0,4.121232E1],"tree_param":{"num_deleted":"0","num_feature":"30","num_nodes":"17","size_leaf_vector":"1"}},{"base_weights":[-9.65752E-3,9.67908E-1,-1.5794903E0,1.1691045E0,-1.0954816E0,-1.3169101E-2,-1.6646975E-1,1.2956848E0,4.2733285E-1,-1.7363537E-2,-1.3274871E-1,1.5690424E-2,1.3189529E-1,1.0971817E-1,-7.33503E-2],"categories":[],"categories_nodes":[],"categories_segments":[],"categories_sizes":[],"default_left":[0,0,0,0,0,0,0,0,0,0,0,0,0,0,0],"id":4,"left_children":[1,3,5,7,9,-1,-1,11,13,-1,-1,-1,-1,-1,-1],"loss_changes":[1.25638855E2,2.2209255E1,3.4795837E0,3.6349335E0,6.7793226E-1,0E0,0E0,6.806412E-1,7.35548E0,0E0,0E0,0E0,0E0,0E0,0E0],"parents":[2147483647,0,0,1,1,2,2,3,3,4,4,7,7,8,8],"right_children":[2,4,6,8,10,-1,-1,12,14,-1,-1,-1,-1,-1,-1],"split_conditions":[8.765E2,1.556E-1,1.926E1,2.916E1,1.17E-1,-1.3169101E-2,-1.6646975E-1,1.069E-2,1.44E1,-1.7363537E-2,-1.3274871E-1,1.5690424E-2,1.3189529E-1,1.0971817E-1,-7.33503E-2],"split_indices":[23,27,21,21,6,0,0,18,20,0,0,0,0,0,0],"split_type":[0,0,0,0,0,0,0,0,0,0,0,0,0,0,0],"sum_hessian":[7.9833916E1,4.939464E1,3.0439276E1,4.5445248E1,3.949392E0,1.898584E0,2.8540691E1,3.8067604E1,7.377645E0,1.2323259E0,2.7170663E0,1.0033405E0,3.7064262E1,4.7675543E0,2.6100905E0],"tree_param":{"num_deleted":"0","num_feature":"30","num_nodes":"15","size_leaf_vector":"1"}},{"base_weights":[4.9138118E-2,9.6622515E-1,-1.3965807E0,1.1460537E0,-1.1569984E-1,-1.4834315E0,4.097278E-2,1.2150525E0,3.122018E-1,1.0540504E-3,-1.5490061E-1,3.3677455E-2,1.23641945E-1,9.150776E-2,-6.912683E-2],"categories":[],"categories_nodes":[],"categories_segments":[],"categories_sizes":[],"default_left":[0,0,0,0,0,0,0,0,0,0,0,0,0,0,0],"id":5,"left_children":[1,3,5,7,-1,9,-1,11,13,-1,-1,-1,-1,-1,-1],"loss_changes":[1.0354751E2,1.9582016E1,5.4681587E0,2.035637E0,0E0,3.0284882E0,0E0,1.9121933E-1,3.5994608E0,0E0,0E0,0E0,0E0,0E0,0E0],"parents":[2147483647,0,0,1,1,2,2,3,3,5,5,7,7,8,8],"right_children":[2,4,6,8,-1,10,-1,12,14,-1,-1,-1,-1,-1,-1],"split_conditions":[1.416E-1,1.752E1,1.197E-1,3.268E1,-1.1569984E-1,1.546E0,4.097278E-2,1.343E-3,1.44E1,1.0540504E-3,-1.5490061E-1,3.3677455E-2,1.23641945E-1,9.150776E-2,-6.912683E-2],"split_indices":[27,20,16,21,0,12,0,19,20,0,0,0,0,0,0],"split_type":[0,0,0,0,0,0,0,0,0,0,0,0,0,0,0],"sum_hessian":[7.611365E1,4.681655E1,2.9297092E1,4.3628704E1,3.1878483E0,2.8176426E1,1.1206654E0,3.9761475E1,3.8672266E0,1.1559076E0,2.702052E1,1.4535997E0,3.8307877E1,2.5331023E0,1.3341243E0],"tree_param":{"num_deleted":"0","num_feature":"30","num_nodes":"15","size_leaf_vector":"1"}},{"base_weights":[2.5520349E-2,1.0210831E0,-1.1856376E0,1.097484E0,-3.7593972E-2,3.8584018E-1,-1.3482867E0,1.1428763E0,-1.1665666E-2,8.4871165E-2,-3.171186E-2,-0E0,-1.4824612E-1,1.2067795E-1,2.9994816E-2,8.176094E-2,-9.0188965E-2],"categories":[],"categories_nodes":[],"categories_segments":[],"categories_sizes":[],"default_left":[0,0,0,0,0,0,0,0,0,0,0,0,0,0,0,0,0],"id":6,"left_children":[1,3,5,7,-1,9,11,13,-1,-1,-1,15,-1,-1,-1,-1,-1],"loss_changes":[8.600961E1,4.667534E0,8.834389E0,2.3015633E0,0E0,1.5377338E0,5.3217735E0,1.4427452E0,0E0,0E0,0E0,3.437925E0,0E0,0E0,0E0,0E0,0E0],"parents":[2147483647,0,0,1,1,2,2,3,3,5,5,6,6,7,7,11,11],"right_children":[2,4,6,8,-1,10,12,14,-1,-1,-1,16,-1,-1,-1,-1,-1],"split_conditions":[4.938E-2,9.397E2,7.112E2,3.767E0,-3.7593972E-2,2.548E1,2.05E1,3.321E1,-1.1665666E-2,8.4871165E-2,-3.171186E-2,7.34E-2,-1.4824612E-1,1.2067795E-1,2.9994816E-2,8.176094E-2,-9.0188965E-2],"split_indices":[7,23,23,12,0,21,21,21,0,0,0,7,0,0,0,0,0],"split_type":[0,0,0,0,0,0,0,0,0,0,0,0,0,0,0,0,0],"sum_hessian":[6.934051E1,3.8188965E1,3.115154E1,3.647993E1,1.7090352E0,2.7354283E0,2.8416113E1,3.5301205E1,1.1787243E0,1.610132E0,1.1252964E0,2.6622849E0,2.5753828E1,3.230207E1,2.9991357E0,1.4454937E0,1.2167912E0],"tree_param":{"num_deleted":"0","num_feature":"30","num_nodes":"17","size_leaf_vector":"1"}},{"base_weights":[-5.3282335E-2,9.6740645E-1,-1.2001121E0,1.114633E0,-7.0235556E-1,3.5230063E-2,-1.3127865E0,1.163192E0,-1.4148583E-2,-1.10673085E-2,-8.944243E-2,1.2277934E-2,-1.4157371E-1,1.183572E-1,2.4021817E-2],"categories":[],"categories_nodes":[],"categories_segments":[],"categories_sizes":[],"default_left":[0,0,0,0,0,0,0,0,0,0,0,0,0,0,0],"id":7,"left_children":[1,3,5,7,9,-1,11,13,-1,-1,-1,-1,-1,-1,-1],"loss_changes":[8.13847E1,9.860573E0,6.288166E0,2.3541374E0,2.0244598E-1,0E0,4.8567886E0,1.9653702E-1,0E0,0E0,0E0,0E0,0E0,0E0,0E0],"parents":[2147483647,0,0,1,1,2,2,3,3,4,4,6,6,7,7],"right_children":[2,4,6,8,10,-1,12,14,-1,-1,-1,-1,-1,-1,-1],"split_conditions":[1.593E1,1.609E-1,1.887E-1,4.538E1,1.775E-1,3.5230063E-2,1.496E1,1.64E-1,-1.4148583E-2,-1.10673085E-2,-8.944243E-2,1.2277934E-2,-1.4157371E-1,1.183572E-1,2.4021817E-2],"split_indices":[20,27,26,13,27,0,1,24,0,0,0,0,0,0,0],"split_type":[0,0,0,0,0,0,0,0,0,0,0,0,0,0,0],"sum_hessian":[6.75148E1,3.5758587E1,3.175621E1,3.322171E1,2.5368803E0,1.9449341E0,2.9811275E1,3.2133095E1,1.0886121E0,1.1355611E0,1.4013191E0,1.9169512E0,2.7894325E1,3.1056652E1,1.0764449E0],"tree_param":{"num_deleted":"0","num_feature":"30","num_nodes":"15","size_leaf_vector":"1"}},{"base_weights":[-1.4545928E-2,7.9563046E-1,-1.2382729E0,1.0475017E0,-3.920496E-1,4.046177E-2,-1.3255216E0,1.095501E0,-1.4819774E-2,5.931447E-1,-1.0304022E0,-1.9347709E-2,-1.3705134E-1,1.1400398E-1,3.244187E-2,8.412025E-2,-0E0,-2.0078843E-2,-1.1776389E-1],"categories":[],"categories_nodes":[],"categories_segments":[],"categories_sizes":[],"default_left":[0,0,0,0,0,0,0,0,0,0,0,0,0,0,0,0,0,0,0],"id":8,"left_children":[1,3,5,7,9,-1,11,13,-1,15,17,-1,-1,-1,-1,-1,-1,-1,-1],"loss_changes":[6.5748535E1,1.2392612E1,4.4187584E0,2.1629333E0,5.452139E0,0E0,8.721962E-1,5.869827E-1,0E0,4.7351444E-1,2.4325323E-1,0E0,0E0,0E0,0E0,0E0,0E0,0E0,0E0],"parents":[2147483647,0,0,1,1,2,2,3,3,4,4,6,6,7,7,9,9,10,10],"right_children":[2,4,6,8,10,-1,12,14,-1,16,18,-1,-1,-1,-1,-1,-1,-1,-1],"split_conditions":[1.684E1,1.342E-1,4.833E-1,5.659E-1,2.553E1,4.046177E-2,1.943E-1,1.108E-1,-1.4819774E-2,1.323E-1,5.55E-2,-1.9347709E-2,-1.3705134E-1,1.1400398E-1,3.244187E-2,8.412025E-2,-0E0,-2.0078843E-2,-1.1776389E-1],"split_indices":[20,27,11,10,21,0,26,27,0,24,7,0,0,0,0,0,0,0,0],"split_type":[0,0,0,0,0,0,0,0,0,0,0,0,0,0,0,0,0,0,0],"sum_hessian":[6.427818E1,3.88352E1,2.5442986E1,3.220724E1,6.6279607E0,1.0418215E0,2.4401163E1,3.1125204E1,1.0820354E0,2.5722594E0,4.0557013E0,1.2202885E0,2.3180874E1,2.8850573E1,2.2746327E0,1.4452462E0,1.1270132E0,1.0699419E0,2.9857595E0],"tree_param":{"num_deleted":"0","num_feature":"30","num_nodes":"19","size_leaf_vector":"1"}},{"base_weights":[6.9793034E-3,1.0429316E0,-1.0362449E0,1.0938809E0,1.2429217E-4,3.4648454E-1,-1.2251474E0,1.1187422E-1,1.6383749E-2,9.946602E-2,-7.820108E-2,-0E0,-1.3057049E-1],"categories":[],"categories_nodes":[],"categories_segments":[],"categories_sizes":[],"default_left":[0,0,0,0,0,0,0,0,0,0,0,0,0],"id":9,"left_children":[1,3,5,7,-1,9,11,-1,-1,-1,-1,-1,-1],"loss_changes":[6.816429E1,1.5710716E0,8.709076E0,3.8489914E-1,0E0,4.081714E0,2.8804169E0,0E0,0E0,0E0,0E0,0E0,0E0],"parents":[2147483647,0,0,1,1,2,2,3,3,5,5,6,6],"right_children":[2,4,6,8,-1,10,12,-1,-1,-1,-1,-1,-1],"split_conditions":[1.034E2,1.456E-1,2.05E1,5.058E-1,1.2429217E-4,7.34E-2,1.092E-1,1.1187422E-1,1.6383749E-2,9.946602E-2,-7.820108E-2,-0E0,-1.3057049E-1],"split_indices":[22,27,21,10,0,7,24,0,0,0,0,0,0],"split_type":[0,0,0,0,0,0,0,0,0,0,0,0,0],"sum_hessian":[6.1071796E1,3.0690933E1,3.0380863E1,2.9120537E1,1.5703965E0,3.4877377E0,2.6893126E1,2.8060041E1,1.0604964E0,2.3469348E0,1.1408029E0,1.6461169E0,2.524701E1],"tree_param":{"num_deleted":"0","num_feature":"30","num_nodes":"13","size_leaf_vector":"1"}},{"base_weights":[-1.8029612E-2,9.438669E-1,-9.2972106E-1,1.0260882E0,-4.9636845E-2,1.3449122E-1,-1.1599658E0,1.08123794E-1,-1.4327483E-2,7.695339E-1,-9.281092E-2,1.8210398E-2,-1.2458437E-1,9.3726985E-2,6.983203E-3],"categories":[],"categories_nodes":[],"categories_segments":[],"categories_sizes":[],"default_left":[0,0,0,0,0,0,0,0,0,0,0,0,0,0,0],"id":10,"left_children":[1,3,5,7,-1,9,11,-1,-1,13,-1,-1,-1,-1,-1],"loss_changes":[5.3689964E1,4.084999E0,7.9711323E0,2.0888176E0,0E0,5.028866E0,3.3366165E0,0E0,0E0,3.7635875E-1,0E0,0E0,0E0,0E0,0E0],"parents":[2147483647,0,0,1,1,2,2,3,3,5,5,6,6,9,9],"right_children":[2,4,6,8,-1,10,12,-1,-1,14,-1,-1,-1,-1,-1],"split_conditions":[1.025E2,1.785E-1,4.744E-2,4.538E1,-4.9636845E-2,2.916E1,1.406E1,1.08123794E-1,-1.4327483E-2,1.223E-1,-9.281092E-2,1.8210398E-2,-1.2458437E-1,9.3726985E-2,6.983203E-3],"split_indices":[22,24,7,13,0,21,1,0,0,24,0,0,0,0,0],"split_type":[0,0,0,0,0,0,0,0,0,0,0,0,0,0,0],"sum_hessian":[5.922427E1,2.8748095E1,3.0476175E1,2.7533243E1,1.2148516E0,5.417507E0,2.5058668E1,2.6446833E1,1.0864112E0,3.6225E0,1.7950072E0,1.3696294E0,2.368904E1,2.5328639E0,1.0896358E0],"tree_param":{"num_deleted":"0","num_feature":"30","num_nodes":"15","size_leaf_vector":"1"}},{"base_weights":[-2.5014177E-2,7.296878E-1,-1.1011163E0,9.112305E-1,-8.539745E-2,1.5248372E-1,-1.2440493E-1,1.0533189E0,1.6760471E-1,7.147828E-2,-4.507701E-2,2.6851183E-2,1.0885745E-1,8.252835E-2,-5.7718154E-2],"categories":[],"categories_nodes":[],"categories_segments":[],"categories_sizes":[],"default_left":[0,0,0,0,0,0,0,0,0,0,0,0,0,0,0],"id":11,"left_children":[1,3,5,7,-1,9,-1,11,13,-1,-1,-1,-1,-1,-1],"loss_changes":[4.3342167E1,9.7847E0,4.2455177E0,2.7261715E0,0E0,1.3911792E0,0E0,2.2866058E-1,3.3885195E0,0E0,0E0,0E0,0E0,0E0,0E0],"parents":[2147483647,0,0,1,1,2,2,3,3,5,5,7,7,8,8],"right_children":[2,4,6,8,-1,10,-1,12,14,-1,-1,-1,-1,-1,-1],"split_conditions":[1.677E1,1.599E-1,1.573E1,2.146E1,-8.539745E-2,1.671E-2,-1.2440493E-1,1.988E-1,6.458E2,7.147828E-2,-4.507701E-2,2.6851183E-2,1.0885745E-1,8.252835E-2,-5.7718154E-2],"split_indices":[20,27,1,1,0,18,0,28,23,0,0,0,0,0,0],"split_type":[0,0,0,0,0,0,0,0,0,0,0,0,0,0,0],"sum_hessian":[5.1333023E1,3.0306896E1,2.1026129E1,2.7627567E1,2.679328E0,2.073548E0,1.895258E1,2.2732931E1,4.8946366E0,1.0633124E0,1.0102357E0,1.4696817E0,2.1263248E1,2.6132278E0,2.2814088E0],"tree_param":{"num_deleted":"0","num_feature":"30","num_nodes":"15","size_leaf_vector":"1"}},{"base_weights":[4.1850302E-2,9.4589186E-1,-8.50557E-1,1.0337251E0,-5.404362E-2,3.5714316E-1,-1.0489618E0,7.383322E-3,1.0671946E0,9.1445364E-2,-6.743505E-2,1.0778901E-2,-1.166699E0,1.1045753E-1,3.0753532E-2,-2.8960926E-2,-1.2043571E-1],"categories":[],"categories_nodes":[],"categories_segments":[],"categories_sizes":[],"default_left":[0,0,0,0,0,0,0,0,0,0,0,0,0,0,0,0,0],"id":12,"left_children":[1,3,5,7,-1,9,11,-1,13,-1,-1,-1,15,-1,-1,-1,-1],"loss_changes":[4.158476E1,3.9543877E0,6.650337E0,5.977421E-1,0E0,3.129685E0,3.3058586E0,0E0,1.8941498E-1,0E0,0E0,0E0,1.8387985E-1,0E0,0E0,0E0,0E0],"parents":[2147483647,0,0,1,1,2,2,3,3,5,5,6,6,8,8,12,12],"right_children":[2,4,6,8,-1,10,12,-1,14,-1,-1,-1,16,-1,-1,-1,-1],"split_conditions":[1.025E2,1.682E-1,2.05E1,6.091E-2,-5.404362E-2,1.456E-1,1.092E-1,7.383322E-3,3.321E1,9.1445364E-2,-6.743505E-2,1.0778901E-2,1.515E-1,1.1045753E-1,3.0753532E-2,-2.8960926E-2,-1.2043571E-1],"split_indices":[22,5,21,29,0,27,24,0,21,0,0,0,8,0,0,0,0],"split_type":[0,0,0,0,0,0,0,0,0,0,0,0,0,0,0,0,0],"sum_hessian":[4.9535496E1,2.463324E1,2.4902256E1,2.3609827E1,1.0234128E0,3.329755E0,2.15725E1,1.0041742E0,2.2605652E1,2.298371E0,1.0313841E0,1.922213E0,1.9650288E1,2.0987247E1,1.6184039E0,1.2760439E0,1.8374243E1],"tree_param":{"num_deleted":"0","num_feature":"30","num_nodes":"17","size_leaf_vector":"1"}},{"base_weights":[3.0363005E-2,8.1512433E-1,-8.800211E-1,9.457315E-1,-3.900096E-1,6.6646133E-3,-1.137954E-1,1.0817267E-1,2.6609844E-1,1.9635713E-2,-8.484628E-2,7.0370954E-1,-8.716571E-2,8.38161E-2,-6.1253317E-2,8.737727E-2,9.225613E-3],"categories":[],"categories_nodes":[],"categories_segments":[],"categories_sizes":[],"default_left":[0,0,0,0,0,0,0,0,0,0,0,0,0,0,0,0,0],"id":13,"left_children":[1,3,5,7,9,11,-1,-1,13,-1,-1,15,-1,-1,-1,-1,-1],"loss_changes":[3.435678E1,4.496399E0,5.2034855E0,1.7685986E0,1.082024E0,4.217864E0,0E0,0E0,3.251082E0,0E0,0E0,2.2984171E-1,0E0,0E0,0E0,0E0,0E0],"parents":[2147483647,0,0,1,1,2,2,3,3,4,4,5,5,8,8,11,11],"right_children":[2,4,6,8,10,12,-1,-1,14,-1,-1,16,-1,-1,-1,-1,-1],"split_conditions":[4.938E-2,6.988E2,2.375E1,2.966E1,2.025E1,7.944E-2,-1.137954E-1,1.0817267E-1,9.14E-2,1.9635713E-2,-8.484628E-2,1.591E1,-8.716571E-2,8.38161E-2,-6.1253317E-2,8.737727E-2,9.225613E-3],"split_indices":[7,3,21,21,1,7,0,0,27,0,0,1,0,0,0,0,0],"split_type":[0,0,0,0,0,0,0,0,0,0,0,0,0,0,0,0,0],"sum_hessian":[4.609453E1,2.4870424E1,2.1224104E1,2.270769E1,2.1627343E0,4.9148803E0,1.6309225E1,1.8305891E1,4.4017973E0,1.1041219E0,1.0586123E0,2.9145331E0,2.0003471E0,2.762835E0,1.6389623E0,1.816701E0,1.0978321E0],"tree_param":{"num_deleted":"0","num_feature":"30","num_nodes":"17","size_leaf_vector":"1"}},{"base_weights":[4.1211255E-2,8.390092E-1,-8.321575E-1,9.70973E-1,-7.2708875E-2,4.836709E-1,-1.0088757E0,1.0455542E0,-2.3830697E-2,6.9560096E-2,-0E0,8.3443424E-4,-1.0944839E-1,1.08275905E-1,1.4056682E-2],"categories":[],"categories_nodes":[],"categories_segments":[],"categories_sizes":[],"default_left":[0,0,0,0,0,0,0,0,0,0,0,0,0,0,0],"id":14,"left_children":[1,3,5,7,-1,9,11,13,-1,-1,-1,-1,-1,-1,-1],"loss_changes":[3.080427E1,5.5122986E0,5.4396276E0,2.2984638E0,0E0,2.6501048E-1,1.769289E0,4.2656517E-1,0E0,0E0,0E0,0E0,0E0,0E0,0E0],"parents":[2147483647,0,0,1,1,2,2,3,3,5,5,6,6,7,7],"right_children":[2,4,6,8,-1,10,12,14,-1,-1,-1,-1,-1,-1,-1],"split_conditions":[7.689E2,1.767E-1,1.887E-1,4.538E1,-7.2708875E-2,1.706E-3,1.842E1,3.585E-1,-2.3830697E-2,6.9560096E-2,-0E0,8.3443424E-4,-1.0944839E-1,1.08275905E-1,1.4056682E-2],"split_indices":[23,27,26,13,0,19,21,28,0,0,0,0,0,0,0],"split_type":[0,0,0,0,0,0,0,0,0,0,0,0,0,0,0],"sum_hessian":[4.220697E1,2.213819E1,2.0068779E1,2.0827099E1,1.3110911E0,2.103497E0,1.7965282E1,1.9822641E1,1.0044566E0,1.0481824E0,1.0553145E0,1.3739563E0,1.6591326E1,1.8745079E1,1.0775628E0],"tree_param":{"num_deleted":"0","num_feature":"30","num_nodes":"15","size_leaf_vector":"1"}},{"base_weights":[1.148024E-2,6.398815E-1,-9.77956E-1,8.876563E-1,-3.0293196E-1,2.968712E-4,-1.061131E0,-3.0044327E-2,9.68569E-1,6.2099006E-2,-6.317464E-1,-1.119936E-1,-6.22102E-3,1.0636554E-1,2.9584952E-3,3.821282E-2,-1.0237111E-1],"categories":[],"categories_nodes":[],"categories_segments":[],"categories_sizes":[],"default_left":[0,0,0,0,0,0,0,0,0,0,0,0,0,0,0,0,0],"id":15,"left_children":[1,3,5,7,9,-1,11,-1,13,-1,15,-1,-1,-1,-1,-1,-1],"loss_changes":[2.6921448E1,6.5329905E0,1.4781799E0,2.4126015E0,2.2738833E0,0E0,7.265415E-1,0E0,1.6741219E0,0E0,2.4983013E0,0E0,0E0,0E0,0E0,0E0,0E0],"parents":[2147483647,0,0,1,1,2,2,3,3,4,4,6,6,8,8,10,10],"right_children":[2,4,6,8,10,-1,12,-1,14,-1,16,-1,-1,-1,-1,-1,-1],"split_conditions":[1.456E-1,3.574E1,2.138E1,3.418E-3,1.534E1,2.968712E-4,9.252E-2,-3.0044327E-2,3.321E1,6.2099006E-2,2.872E-2,-1.119936E-1,-6.22102E-3,1.0636554E-1,2.9584952E-3,3.821282E-2,-1.0237111E-1],"split_indices":[27,13,13,14,1,0,16,0,21,0,7,0,0,0,0,0,0],"split_type":[0,0,0,0,0,0,0,0,0,0,0,0,0,0,0,0,0],"sum_hessian":[4.1346493E1,2.556454E1,1.5781951E1,2.0374592E1,5.1899486E0,1.2149895E0,1.4566962E1,1.0472975E0,1.9327295E1,1.0491868E0,4.140762E0,1.3548147E1,1.0188146E0,1.7332813E1,1.9944818E0,1.0903583E0,3.0504034E0],"tree_param":{"num_deleted":"0","num_feature":"30","num_nodes":"17","size_leaf_vector":"1"}},{"base_weights":[-0E0,8.298223E-1,-6.819862E-1,-2.9221436E-2,9.2264545E-1,4.387471E-1,-9.152854E-1,9.774979E-2,7.256866E-4,8.69245E-2,-3.9487056E-2,3.7840676E-2,-1.033328E0,-3.3919692E-2,-1.0861061E-1],"categories":[],"categories_nodes":[],"categories_segments":[],"categories_sizes":[],"default_left":[0,0,0,0,0,0,0,0,0,0,0,0,0,0,0],"id":16,"left_children":[1,3,5,-1,7,9,11,-1,-1,-1,-1,-1,13,-1,-1],"loss_changes":[2.1745434E1,2.1413422E0,5.9511957E0,0E0,7.15992E-1,1.9078996E0,3.1770487E0,0E0,0E0,0E0,0E0,0E0,9.9559784E-2,0E0,0E0],"parents":[2147483647,0,0,1,1,2,2,4,4,5,5,6,6,12,12],"right_children":[2,4,6,-1,8,10,12,-1,-1,-1,-1,-1,14,-1,-1],"split_conditions":[1.025E2,1.988E-1,1.573E1,-2.9221436E-2,1.637E-1,3.57E-3,8.512E-2,9.774979E-2,7.256866E-4,8.69245E-2,-3.9487056E-2,3.7840676E-2,4.083E-2,-3.3919692E-2,-1.0861061E-1],"split_indices":[22,28,1,0,24,19,27,0,0,0,0,0,7,0,0],"split_type":[0,0,0,0,0,0,0,0,0,0,0,0,0,0,0],"sum_hessian":[3.6408783E1,1.636605E1,2.0042732E1,1.0040312E0,1.536202E1,3.2277703E0,1.6814962E1,1.43264475E1,1.0355717E0,2.1794677E0,1.0483028E0,1.1507244E0,1.5664237E1,1.7655472E0,1.389869E1],"tree_param":{"num_deleted":"0","num_feature":"30","num_nodes":"15","size_leaf_vector":"1"}},{"base_weights":[-1.6554153E-3,8.6440337E-1,-7.1427715E-1,9.137299E-1,2.1913352E-4,5.090106E-1,-8.968961E-1,1.0116376E-1,2.7237576E-1,6.308607E-2,9.617151E-3,1.1328001E-1,-1.0703992E-1,-3.0840805E-2,6.578388E-2,7.330413E-2,-6.298377E-2],"categories":[],"categories_nodes":[],"categories_segments":[],"categories_sizes":[],"default_left":[0,0,0,0,0,0,0,0,0,0,0,0,0,0,0,0,0],"id":17,"left_children":[1,3,5,7,-1,9,11,-1,13,-1,-1,15,-1,-1,-1,-1,-1],"loss_changes":[2.292057E1,6.17198E-1,5.0635815E0,5.816755E-1,0E0,2.8759837E-2,3.4114447E0,0E0,1.0398474E0,0E0,0E0,2.0800004E0,0E0,0E0,0E0,0E0,0E0],"parents":[2147483647,0,0,1,1,2,2,3,3,5,5,6,6,8,8,11,11],"right_children":[2,4,6,8,-1,10,12,-1,14,-1,-1,16,-1,-1,-1,-1,-1],"split_conditions":[1.023E2,1.64E-1,1.092E-1,2.241E1,2.1913352E-4,1.677E1,1.556E1,1.0116376E-1,1.203E-2,6.308607E-2,9.617151E-3,1.53E1,-1.0703992E-1,-3.0840805E-2,6.578388E-2,7.330413E-2,-6.298377E-2],"split_indices":[22,24,24,1,0,20,1,0,15,0,0,0,0,0,0,0,0],"split_type":[0,0,0,0,0,0,0,0,0,0,0,0,0,0,0,0,0],"sum_hessian":[3.5161957E1,1.5712738E1,1.9449219E1,1.4696244E1,1.0164932E0,2.223052E0,1.7226166E1,1.2113724E1,2.582521E0,1.1216635E0,1.1013887E0,2.491398E0,1.4734768E1,1.0064938E0,1.5760272E0,1.439217E0,1.0521811E0],"tree_param":{"num_deleted":"0","num_feature":"30","num_nodes":"17","size_leaf_vector":"1"}},{"base_weights":[4.3618005E-2,6.176252E-1,-9.496516E-1,8.744717E-1,-3.3250564E-1,-1.9785424E-3,-1.0529279E-1,-2.8077422E-2,9.61372E-1,-7.730194E-1,3.532711E-2,1.0372037E-1,-4.249101E-4,-9.214579E-3,-9.632213E-2],"categories":[],"categories_nodes":[],"categories_segments":[],"categories_sizes":[],"default_left":[0,0,0,0,0,0,0,0,0,0,0,0,0,0,0],"id":18,"left_children":[1,3,5,7,9,-1,-1,-1,11,13,-1,-1,-1,-1,-1],"loss_changes":[2.1048746E1,6.068098E0,1.1679573E0,2.2273111E0,2.0165286E0,0E0,0E0,0E0,1.4117966E0,3.019395E-1,0E0,0E0,0E0,0E0,0E0],"parents":[2147483647,0,0,1,1,2,2,3,3,4,4,8,8,9,9],"right_children":[2,4,6,8,10,-1,-1,-1,12,14,-1,-1,-1,-1,-1],"split_conditions":[1.456E-1,3.444E1,7.112E2,3.308E-3,3.442E-3,-1.9785424E-3,-1.0529279E-1,-2.8077422E-2,3.788E-1,1.892E-3,3.532711E-2,1.0372037E-1,-4.249101E-4,-9.214579E-3,-9.632213E-2],"split_indices":[27,13,23,14,19,0,0,0,26,19,0,0,0,0,0],"split_type":[0,0,0,0,0,0,0,0,0,0,0,0,0,0,0],"sum_hessian":[3.4947803E1,2.2451834E1,1.2495972E1,1.7819588E1,4.632246E0,1.4650438E0,1.1030928E1,1.0100696E0,1.6809517E1,2.831813E0,1.8004332E0,1.5612848E1,1.1966696E0,1.0572721E0,1.774541E0],"tree_param":{"num_deleted":"0","num_feature":"30","num_nodes":"15","size_leaf_vector":"1"}},{"base_weights":[-1.0418697E-2,5.0750834E-1,-9.3652755E-1,6.7311E-1,-7.8579664E-2,-0E0,-1.0277905E-1,8.9148754E-1,3.873678E-2,4.3480466E-3,9.457117E-2,7.320788E-2,-5.2126497E-2],"categories":[],"categories_nodes":[],"categories_segments":[],"categories_sizes":[],"default_left":[0,0,0,0,0,0,0,0,0,0,0,0,0],"id":19,"left_children":[1,3,5,7,-1,-1,-1,9,11,-1,-1,-1,-1],"loss_changes":[1.6189734E1,5.1294994E0,9.8272324E-1,2.6010046E0,0E0,0E0,0E0,5.262251E-1,2.8125398E0,0E0,0E0,0E0,0E0],"parents":[2147483647,0,0,1,1,2,2,3,3,7,7,8,8],"right_children":[2,4,6,8,-1,-1,-1,10,12,-1,-1,-1,-1],"split_conditions":[8.887E2,1.712E-1,8.206E-2,2.146E1,-7.8579664E-2,-0E0,-1.0277905E-1,2.112E-1,6.458E2,4.3480466E-3,9.457117E-2,7.320788E-2,-5.2126497E-2],"split_indices":[23,27,4,1,0,0,0,28,23,0,0,0,0],"split_type":[0,0,0,0,0,0,0,0,0,0,0,0,0],"sum_hessian":[3.1672394E1,2.0533205E1,1.1139189E1,1.8696117E1,1.8370862E0,1.1297964E0,1.0009392E1,1.3489524E1,5.206594E0,1.0298502E0,1.2459674E1,2.2688308E0,2.9377635E0],"tree_param":{"num_deleted":"0","num_feature":"30","num_nodes":"13","size_leaf_vector":"1"}},{"base_weights":[4.0568307E-2,5.037304E-1,-9.137604E-1,7.420526E-1,-3.46119E-1,3.1485994E-4,-1.0196345E-1,8.48043E-1,-3.1284545E-2,4.2465642E-2,-7.656081E-2,9.958795E-2,1.4623644E-2],"categories":[],"categories_nodes":[],"categories_segments":[],"categories_sizes":[],"default_left":[0,0,0,0,0,0,0,0,0,0,0,0,0],"id":20,"left_children":[1,3,5,7,9,-1,-1,11,-1,-1,-1,-1,-1],"loss_changes":[1.4729965E1,4.8561068E0,1.1594782E0,2.3305082E0,2.1441917E0,0E0,0E0,1.4733477E0,0E0,0E0,0E0,0E0,0E0],"parents":[2147483647,0,0,1,1,2,2,3,3,4,4,7,7],"right_children":[2,4,6,8,10,-1,-1,12,-1,-1,-1,-1,-1],"split_conditions":[1.752E1,3.538E-1,2.26E-1,4.538E1,2.553E1,3.1485994E-4,-1.0196345E-1,2.925E1,-3.1284545E-2,4.2465642E-2,-7.656081E-2,9.958795E-2,1.4623644E-2],"split_indices":[20,26,26,13,21,0,0,21,0,0,0,0,0],"split_type":[0,0,0,0,0,0,0,0,0,0,0,0,0],"sum_hessian":[3.137645E1,2.1512693E1,9.863756E0,1.6992123E1,4.520569E0,1.0237184E0,8.840038E0,1.5705051E1,1.287072E0,1.5048437E0,3.0157254E0,1.2508589E1,3.196463E0],"tree_param":{"num_deleted":"0","num_feature":"30","num_nodes":"13","size_leaf_vector":"1"}},{"base_weights":[-5.164439E-2,4.5122167E-1,-9.036326E-1,7.004371E-1,-4.9814698E-1,-1.3037355E-3,-9.787934E-2,9.199104E-1,-0E0,4.9323585E-2,-9.439286E-2,9.88389E-2,4.0748795E-3,7.228523E-2,-8.833347E-2],"categories":[],"categories_nodes":[],"categories_segments":[],"categories_sizes":[],"default_left":[0,0,0,0,0,0,0,0,0,0,0,0,0,0,0],"id":21,"left_children":[1,3,5,7,9,-1,-1,11,13,-1,-1,-1,-1,-1,-1],"loss_changes":[1.3395916E1,5.004157E0,6.658373E-1,2.5153656E0,2.5321987E0,0E0,0E0,5.9477806E-1,3.6860046E0,0E0,0E0,0E0,0E0,0E0,0E0],"parents":[2147483647,0,0,1,1,2,2,3,3,4,4,7,7,8,8],"right_children":[2,4,6,8,10,-1,-1,12,14,-1,-1,-1,-1,-1,-1],"split_conditions":[1.456E-1,6.988E2,9.076E-2,2.925E1,2.417E1,-1.3037355E-3,-9.787934E-2,1.924E0,9.14E-2,4.9323585E-2,-9.439286E-2,9.88389E-2,4.0748795E-3,7.228523E-2,-8.833347E-2],"split_indices":[27,3,4,21,21,0,0,11,27,0,0,0,0,0,0],"split_type":[0,0,0,0,0,0,0,0,0,0,0,0,0,0,0],"sum_hessian":[2.9209734E1,1.8590277E1,1.0619457E1,1.5016016E1,3.5742614E0,1.0213399E0,9.598118E0,1.1257842E1,3.7581735E0,1.0060683E0,2.568193E0,1.0223537E1,1.0343051E0,2.1307E0,1.6274732E0],"tree_param":{"num_deleted":"0","num_feature":"30","num_nodes":"15","size_leaf_vector":"1"}},{"base_weights":[1.0827352E-2,4.709505E-1,-8.4194386E-1,7.167458E-1,-1.9669878E-1,1.911769E-3,-9.535803E-2,8.518601E-1,-4.200923E-2,4.8662513E-2,-5.256917E-1,9.732922E-2,3.247828E-2,7.589591E-3,-7.741994E-2],"categories":[],"categories_nodes":[],"categories_segments":[],"categories_sizes":[],"default_left":[0,0,0,0,0,0,0,0,0,0,0,0,0,0,0],"id":22,"left_children":[1,3,5,7,9,-1,-1,11,-1,-1,13,-1,-1,-1,-1],"loss_changes":[1.1416824E1,3.3145294E0,1.0881968E0,2.5864968E0,1.5621816E0,0E0,0E0,3.9416885E-1,0E0,0E0,7.9987764E-1,0E0,0E0,0E0,0E0],"parents":[2147483647,0,0,1,1,2,2,3,3,4,4,7,7,10,10],"right_children":[2,4,6,8,10,-1,-1,12,-1,-1,14,-1,-1,-1,-1],"split_conditions":[1.146E2,3.169E-1,6.487E-2,4.538E1,1.819E1,1.911769E-3,-9.535803E-2,2.154E1,-4.200923E-2,4.8662513E-2,1.384E-1,9.732922E-2,3.247828E-2,7.589591E-3,-7.741994E-2],"split_indices":[22,26,29,13,13,0,0,1,0,0,24,0,0,0,0],"split_type":[0,0,0,0,0,0,0,0,0,0,0,0,0,0,0],"sum_hessian":[2.7180378E1,1.8021606E1,9.158772E0,1.3227968E1,4.7936373E0,1.0434598E0,8.115313E0,1.2125482E1,1.1024864E0,1.3033868E0,3.4902506E0,9.012747E0,3.1127346E0,1.1057185E0,2.3845322E0],"tree_param":{"num_deleted":"0","num_feature":"30","num_nodes":"15","size_leaf_vector":"1"}},{"base_weights":[-4.8152343E-3,7.1928763E-1,-5.8299977E-1,8.2030946E-1,3.904063E-3,3.9726335E-1,-7.985917E-1,9.310706E-2,1.5333757E-2,6.4428456E-2,-4.5084856E-3,1.785195E-2,-9.9581964E-2],"categories":[],"categories_nodes":[],"categories_segments":[],"categories_sizes":[],"default_left":[0,0,0,0,0,0,0,0,0,0,0,0,0],"id":23,"left_children":[1,3,5,7,-1,9,11,-1,-1,-1,-1,-1,-1],"loss_changes":[1.1834215E1,7.403712E-1,3.6980195E0,5.390487E-1,0E0,4.641912E-1,2.836707E0,0E0,0E0,0E0,0E0,0E0,0E0],"parents":[2147483647,0,0,1,1,2,2,3,3,5,5,6,6],"right_children":[2,4,6,8,-1,10,12,-1,-1,-1,-1,-1,-1],"split_conditions":[1.087E-1,4.051E1,7.114E2,2.151E-1,3.904063E-3,1.97E-1,1.997E1,9.310706E-2,1.5333757E-2,6.4428456E-2,-4.5084856E-3,1.785195E-2,-9.9581964E-2],"split_indices":[27,13,23,26,0,8,21,0,0,0,0,0,0],"split_type":[0,0,0,0,0,0,0,0,0,0,0,0,0],"sum_hessian":[2.6297476E1,1.1490314E1,1.4807162E1,9.6972885E0,1.7930251E0,2.433935E0,1.2373228E1,7.8480916E0,1.8491964E0,1.4139161E0,1.0200189E0,2.0088363E0,1.0364391E1],"tree_param":{"num_deleted":"0","num_feature":"30","num_nodes":"13","size_leaf_vector":"1"}},{"base_weights":[-0E0,5.027125E-1,-8.3406556E-1,6.2496275E-1,-6.297636E-2,-0E0,-9.379544E-2,8.865421E-1,-2.2726705E-2,9.579142E-2,1.4862078E-2,7.100201E-2,-7.040306E-2],"categories":[],"categories_nodes":[],"categories_segments":[],"categories_sizes":[],"default_left":[0,0,0,0,0,0,0,0,0,0,0,0,0],"id":24,"left_children":[1,3,5,7,-1,-1,-1,9,11,-1,-1,-1,-1],"loss_changes":[1.1105171E1,2.681645E0,8.949356E-1,2.7328014E0,0E0,0E0,0E0,3.3563328E-1,3.1573753E0,0E0,0E0,0E0,0E0],"parents":[2147483647,0,0,1,1,2,2,3,3,7,7,8,8],"right_children":[2,4,6,8,-1,-1,-1,10,12,-1,-1,-1,-1],"split_conditions":[1.131E2,4.368E1,3.239E-2,4.451E-2,-6.297636E-2,-0E0,-9.379544E-2,3.321E1,2.548E1,9.579142E-2,1.4862078E-2,7.100201E-2,-7.040306E-2],"split_indices":[22,13,7,7,0,0,0,21,21,0,0,0,0],"split_type":[0,0,0,0,0,0,0,0,0,0,0,0,0],"sum_hessian":[2.4488596E1,1.5530313E1,8.958282E0,1.4501346E1,1.0289663E0,1.0665591E0,7.8917236E0,1.0176877E1,4.3244696E0,8.883973E0,1.2929031E0,1.9925464E0,2.331923E0],"tree_param":{"num_deleted":"0","num_feature":"30","num_nodes":"13","size_leaf_vector":"1"}},{"base_weights":[1.0593691E-2,6.125467E-1,-6.260296E-1,7.308465E-1,-3.3580504E-2,2.0914964E-1,-8.5683024E-1,8.4035325E-1,-1.4648363E-2,6.1152704E-2,-2.8589988E-2,3.5820135E-3,-9.7635284E-2,9.110788E-2,4.2474573E-3],"categories":[],"categories_nodes":[],"categories_segments":[],"categories_sizes":[],"default_left":[0,0,0,0,0,0,0,0,0,0,0,0,0,0,0],"id":25,"left_children":[1,3,5,7,-1,9,11,13,-1,-1,-1,-1,-1,-1,-1],"loss_changes":[9.781703E0,1.7651033E0,2.621581E0,1.358705E0,0E0,8.8080287E-1,1.1910329E0,4.890275E-1,0E0,0E0,0E0,0E0,0E0,0E0,0E0],"parents":[2147483647,0,0,1,1,2,2,3,3,5,5,6,6,7,7],"right_children":[2,4,6,8,-1,10,12,14,-1,-1,-1,-1,-1,-1,-1],"split_conditions":[7.689E2,1.712E-1,1.7E1,4.099E0,-3.3580504E-2,3.371E-2,1.085E-1,3.321E1,-1.4648363E-2,6.1152704E-2,-2.8589988E-2,3.5820135E-3,-9.7635284E-2,9.110788E-2,4.2474573E-3],"split_indices":[23,27,1,12,0,16,24,21,0,0,0,0,0,0,0],"split_type":[0,0,0,0,0,0,0,0,0,0,0,0,0,0,0],"sum_hessian":[2.3528063E1,1.2193507E1,1.1334555E1,1.113882E1,1.054688E0,2.3806012E0,8.953954E0,1.0041577E1,1.0972419E0,1.2948554E0,1.0857459E0,1.0412273E0,7.9127264E0,8.9784975E0,1.0630801E0],"tree_param":{"num_deleted":"0","num_feature":"30","num_nodes":"15","size_leaf_vector":"1"}},{"base_weights":[2.846525E-3,5.7017577E-1,-7.0453656E-1,7.7309924E-1,-1.6105549E-1,1.8145824E-3,-8.3587515E-1,-5.069188E-3,9.287186E-2,3.1338852E-2,-5.728802E-2,-2.172987E-2,-9.3516454E-2],"categories":[],"categories_nodes":[],"categories_segments":[],"categories_sizes":[],"default_left":[0,0,0,0,0,0,0,0,0,0,0,0,0],"id":26,"left_children":[1,3,5,7,9,-1,11,-1,-1,-1,-1,-1,-1],"loss_changes":[9.311719E0,2.1103005E0,1.0712533E0,1.4722748E0,8.9677316E-1,0E0,2.2353935E-1,0E0,0E0,0E0,0E0,0E0,0E0],"parents":[2147483647,0,0,1,1,2,2,3,3,4,4,6,6],"right_children":[2,4,6,8,10,-1,12,-1,-1,-1,-1,-1,-1],"split_conditions":[4.938E-2,3.444E1,1.023E2,4.117E-3,8.757E-2,1.8145824E-3,2.934E1,-5.069188E-3,9.287186E-2,3.1338852E-2,-5.728802E-2,-2.172987E-2,-9.3516454E-2],"split_indices":[7,13,22,14,4,0,13,0,0,0,0,0,0],"split_type":[0,0,0,0,0,0,0,0,0,0,0,0,0],"sum_hessian":[2.1235287E1,1.1970301E1,9.264986E0,9.43226E0,2.5380409E0,1.4402957E0,7.82469E0,1.5037304E0,7.9285293E0,1.1775932E0,1.3604475E0,1.6625625E0,6.1621275E0],"tree_param":{"num_deleted":"0","num_feature":"30","num_nodes":"13","size_leaf_vector":"1"}},{"base_weights":[1.4406729E-2,5.687352E-1,-5.9478897E-1,7.981976E-1,-1.455677E-1,7.1935624E-2,-8.658596E-2,5.163304E-3,8.724697E-2,5.1077988E-2,-6.384249E-2,6.833988E-2,-4.4725616E-2],"categories":[],"categories_nodes":[],"categories_segments":[],"categories_sizes":[],"default_left":[0,0,0,0,0,0,0,0,0,0,0,0,0],"id":27,"left_children":[1,3,5,7,9,11,-1,-1,-1,-1,-1,-1,-1],"loss_changes":[7.910051E0,2.2041862E0,2.1457605E0,3.9488125E-1,1.5487882E0,1.6060884E0,0E0,0E0,0E0,0E0,0E0,0E0,0E0],"parents":[2147483647,0,0,1,1,2,2,3,3,4,4,5,5],"right_children":[2,4,6,8,10,12,-1,-1,-1,-1,-1,-1,-1],"split_conditions":[4.938E-2,3.162E1,2.375E1,8.294E-2,1.44E1,8.097E2,-8.658596E-2,5.163304E-3,8.724697E-2,5.1077988E-2,-6.384249E-2,6.833988E-2,-4.4725616E-2],"split_indices":[7,21,21,25,20,23,0,0,0,0,0,0,0],"split_type":[0,0,0,0,0,0,0,0,0,0,0,0,0],"sum_hessian":[2.1429676E1,1.1340828E1,1.0088849E1,8.60054E0,2.7402875E0,3.0219026E0,7.0669465E0,1.0534194E0,7.547121E0,1.0726093E0,1.6676782E0,1.3308569E0,1.6910455E0],"tree_param":{"num_deleted":"0","num_feature":"30","num_nodes":"13","size_leaf_vector":"1"}},{"base_weights":[-4.1995835E-2,3.0466822E-1,-8.894773E-2,6.241078E-1,-3.2172412E-1,8.398317E-1,-2.3911452E-2,5.4929167E-2,-7.2464895E-1,3.3444737E-3,9.320001E-2,-3.518082E-3,-9.3053326E-2],"categories":[],"categories_nodes":[],"categories_segments":[],"categories_sizes":[],"default_left":[0,0,0,0,0,0,0,0,0,0,0,0,0],"id":28,"left_children":[1,3,-1,5,7,9,-1,-1,11,-1,-1,-1,-1],"loss_changes":[6.157373E0,3.180277E0,0E0,2.161649E0,2.3570838E0,5.025978E-1,0E0,0E0,4.7995114E-1,0E0,0E0,0E0,0E0],"parents":[2147483647,0,0,1,1,3,3,4,4,5,5,8,8],"right_children":[2,4,-1,6,8,10,-1,-1,12,-1,-1,-1,-1],"split_conditions":[1.204E2,2.146E1,-8.894773E-2,1.089E-1,6.458E2,8.5E-2,-2.3911452E-2,5.4929167E-2,8.983E-2,3.3444737E-3,9.320001E-2,-3.518082E-3,-9.3053326E-2],"split_indices":[22,1,0,4,23,25,0,0,4,0,0,0,0],"split_type":[0,0,0,0,0,0,0,0,0,0,0,0,0],"sum_hessian":[1.8836853E1,1.3739278E1,5.0975757E0,9.207199E0,4.5320783E0,7.480679E0,1.7265205E0,1.2400265E0,3.2920518E0,1.0184069E0,6.462272E0,1.1379281E0,2.1541235E0],"tree_param":{"num_deleted":"0","num_feature":"30","num_nodes":"13","size_leaf_vector":"1"}},{"base_weights":[6.990025E-2,7.60393E-1,-4.656795E-1,9.171619E-2,-0E0,6.6256E-4,-8.1670594E-1,6.4703375E-2,-4.3641332E-1,-8.856332E-2,-1.750032E-2,-0E0,-6.915607E-2],"categories":[],"categories_nodes":[],"categories_segments":[],"categories_sizes":[],"default_left":[0,0,0,0,0,0,0,0,0,0,0,0,0],"id":29,"left_children":[1,3,5,-1,-1,7,9,-1,11,-1,-1,-1,-1],"loss_changes":[7.7860155E0,1.0157571E0,2.0156693E0,0E0,0E0,1.9842218E0,4.2464256E-2,0E0,5.027975E-1,0E0,0E0,0E0,0E0],"parents":[2147483647,0,0,1,1,2,2,5,5,6,6,8,8],"right_children":[2,4,6,-1,-1,8,10,-1,12,-1,-1,-1,-1],"split_conditions":[1.092E-1,3.268E1,3.116E1,9.171619E-2,-0E0,2.553E1,9.406E-3,6.4703375E-2,5.439E-2,-8.856332E-2,-1.750032E-2,-0E0,-6.915607E-2],"split_indices":[27,21,13,0,0,21,14,0,7,0,0,0,0],"split_type":[0,0,0,0,0,0,0,0,0,0,0,0,0],"sum_hessian":[1.9016672E1,8.205168E0,1.0811504E1,6.534793E0,1.6703751E0,4.9494047E0,5.862099E0,1.8951617E0,3.054243E0,4.809527E0,1.0525721E0,1.3884022E0,1.6658407E0],"tree_param":{"num_deleted":"0","num_feature":"30","num_nodes":"13","size_leaf_vector":"1"}},{"base_weights":[-0E0,5.4859704E-1,-5.650108E-1,7.073129E-1,-2.9173184E-2,2.154432E-1,-8.4080674E-2,-2.3286132E-2,8.6982094E-2,5.8126677E-2,-1.8901622E-2],"categories":[],"categories_nodes":[],"categories_segments":[],"categories_sizes":[],"default_left":[0,0,0,0,0,0,0,0,0,0,0],"id":30,"left_children":[1,3,5,7,-1,9,-1,-1,-1,-1,-1],"loss_changes":[6.2407866E0,1.6056888E0,2.3857312E0,1.6344571E0,0E0,6.373366E-1,0E0,0E0,0E0,0E0,0E0],"parents":[2147483647,0,0,1,1,2,2,3,3,5,5],"right_children":[2,4,6,8,-1,10,-1,-1,-1,-1,-1],"split_conditions":[7.689E2,3.613E-1,1.695E1,1.988E-1,-2.9173184E-2,1.379E-1,-8.4080674E-2,-2.3286132E-2,8.6982094E-2,5.8126677E-2,-1.8901622E-2],"split_indices":[23,28,1,28,0,27,0,0,0,0,0],"split_type":[0,0,0,0,0,0,0,0,0,0,0],"sum_hessian":[1.8131948E1,9.180319E0,8.95163E0,7.9551024E0,1.2252165E0,2.2998114E0,6.6518183E0,1.0178955E0,6.937207E0,1.1078695E0,1.1919419E0],"tree_param":{"num_deleted":"0","num_feature":"30","num_nodes":"11","size_leaf_vector":"1"}},{"base_weights":[1.1605585E-2,3.7689105E-1,-6.970462E-1,8.690502E-2,-5.7970937E-2,-0E0,-8.4815234E-2,6.2021703E-2,-3.8720867E-1,2.8013948E-2,-8.215629E-2],"categories":[],"categories_nodes":[],"categories_segments":[],"categories_sizes":[],"default_left":[0,0,0,0,0,0,0,0,0,0,0],"id":31,"left_children":[1,3,5,-1,7,-1,-1,-1,9,-1,-1],"loss_changes":[4.7960377E0,2.781015E0,7.2895575E-1,0E0,1.8696182E0,0E0,0E0,0E0,1.935914E0,0E0,0E0],"parents":[2147483647,0,0,1,1,2,2,4,4,8,8],"right_children":[2,4,6,-1,8,-1,-1,-1,10,-1,-1],"split_conditions":[1.752E1,2.331E1,1.795E-1,8.690502E-2,5.53E2,-0E0,-8.4815234E-2,6.2021703E-2,8.946E-2,2.8013948E-2,-8.215629E-2],"split_indices":[20,21,25,0,23,0,0,0,4,0,0],"split_type":[0,0,0,0,0,0,0,0,0,0,0],"sum_hessian":[1.6636324E1,1.1379736E1,5.256589E0,4.977693E0,6.402043E0,1.0174123E0,4.2391768E0,1.7041602E0,4.6978827E0,1.9013845E0,2.796498E0],"tree_param":{"num_deleted":"0","num_feature":"30","num_nodes":"11","size_leaf_vector":"1"}},{"base_weights":[-7.2325743E-3,3.3312282E-1,-6.438511E-1,5.998582E-1,-2.1176253E-1,4.119109E-3,-8.042678E-2,7.0873576E-1,-1.13781E-3,4.966479E-2,-5.9703076E-1,8.5688904E-2,6.91389E-4,-8.970111E-2,-0E0],"categories":[],"categories_nodes":[],"categories_segments":[],"categories_sizes":[],"default_left":[0,0,0,0,0,0,0,0,0,0,0,0,0,0,0],"id":32,"left_children":[1,3,5,7,9,-1,-1,11,-1,-1,13,-1,-1,-1,-1],"loss_changes":[4.045038E0,1.9074575E0,8.2947445E-1,6.387491E-1,1.5494814E0,0E0,0E0,6.676905E-1,0E0,0E0,5.960709E-1,0E0,0E0,0E0,0E0],"parents":[2147483647,0,0,1,1,2,2,3,3,4,4,7,7,10,10],"right_children":[2,4,6,8,10,-1,-1,12,-1,-1,14,-1,-1,-1,-1],"split_conditions":[1.456E-1,2.146E1,2.419E1,1.752E1,6.458E2,4.119109E-3,-8.042678E-2,4.25E-1,-1.13781E-3,4.966479E-2,2.758E-3,8.5688904E-2,6.91389E-4,-8.970111E-2,-0E0],"split_indices":[27,1,13,20,23,0,0,10,0,0,19,0,0,0,0],"split_type":[0,0,0,0,0,0,0,0,0,0,0,0,0,0,0],"sum_hessian":[1.653528E1,1.0983058E1,5.5522223E0,7.4290047E0,3.5540533E0,1.0762146E0,4.476008E0,6.30925E0,1.1197549E0,1.058706E0,2.4953473E0,4.9094405E0,1.3998094E0,1.2892203E0,1.206127E0],"tree_param":{"num_deleted":"0","num_feature":"30","num_nodes":"15","size_leaf_vector":"1"}},{"base_weights":[5.271481E-3,3.7807125E-1,-6.8778056E-1,8.3513334E-2,2.7831318E-2,-0E0,-8.224758E-2,5.2630764E-1,-4.072854E-1,-0E0,7.298403E-2,-7.633924E-2,8.631551E-3],"categories":[],"categories_nodes":[],"categories_segments":[],"categories_sizes":[],"default_left":[0,0,0,0,0,0,0,0,0,0,0,0,0],"id":33,"left_children":[1,3,5,-1,7,-1,-1,9,11,-1,-1,-1,-1],"loss_changes":[4.4711094E0,1.7177867E0,5.3487706E-1,0E0,1.8792299E0,0E0,0E0,5.0920033E-1,9.29115E-1,0E0,0E0,0E0,0E0],"parents":[2147483647,0,0,1,1,2,2,4,4,7,7,8,8],"right_children":[2,4,6,-1,8,-1,-1,10,12,-1,-1,-1,-1],"split_conditions":[1.131E2,2.331E1,8.372E-2,8.3513334E-2,9.037E-2,-0E0,-8.224758E-2,1.906E-3,1.791E-2,-0E0,7.298403E-2,-7.633924E-2,8.631551E-3],"split_indices":[22,21,4,0,4,0,0,19,18,0,0,0,0],"split_type":[0,0,0,0,0,0,0,0,0,0,0,0,0],"sum_hessian":[1.5418532E1,1.0414981E1,5.0035515E0,3.7939317E0,6.6210494E0,1.0146707E0,3.9888809E0,3.0952868E0,3.5257623E0,1.0096931E0,2.0855937E0,1.8483152E0,1.6774472E0],"tree_param":{"num_deleted":"0","num_feature":"30","num_nodes":"13","size_leaf_vector":"1"}},{"base_weights":[-1.2903381E-2,7.020647E-1,-4.1402534E-1,8.361482E-2,-0E0,2.1136358E-1,-7.225427E-1,6.98798E-2,-3.9019775E-2,5.302451E-3,-8.904049E-1,-1.7612569E-2,-9.82763E-2],"categories":[],"categories_nodes":[],"categories_segments":[],"categories_sizes":[],"default_left":[0,0,0,0,0,0,0,0,0,0,0,0,0],"id":34,"left_children":[1,3,5,-1,-1,7,9,-1,-1,-1,11,-1,-1],"loss_changes":[4.638888E0,4.7939134E-1,2.2288883E0,0E0,0E0,1.5156581E0,1.0893648E0,0E0,0E0,0E0,1.20961666E-1,0E0,0E0],"parents":[2147483647,0,0,1,1,2,2,5,5,6,6,10,10],"right_children":[2,4,6,-1,-1,8,10,-1,-1,-1,12,-1,-1],"split_conditions":[2.08E-1,3.483E-2,2.375E1,8.361482E-2,-0E0,8.097E2,6.458E2,6.98798E-2,-3.9019775E-2,5.302451E-3,2.677E-1,-1.7612569E-2,-9.82763E-2],"split_indices":[26,7,21,0,0,23,23,0,0,0,28,0,0],"split_type":[0,0,0,0,0,0,0,0,0,0,0,0,0],"sum_hessian":[1.4262138E1,4.7665634E0,9.495575E0,3.7510984E0,1.015465E0,3.1338303E0,6.3617444E0,1.7336656E0,1.4001646E0,1.1476575E0,5.214087E0,1.0538156E0,4.160271E0],"tree_param":{"num_deleted":"0","num_feature":"30","num_nodes":"13","size_leaf_vector":"1"}},{"base_weights":[-4.5037612E-2,7.932075E-2,-3.9287704E-1,5.5623814E-2,-9.157775E-2,5.9593E-1,-6.1714496E-2,1.1368593E-3,7.354548E-2],"categories":[],"categories_nodes":[],"categories_segments":[],"categories_sizes":[],"default_left":[0,0,0,0,0,0,0,0,0],"id":35,"left_children":[1,-1,3,5,-1,7,-1,-1,-1],"loss_changes":[4.6231556E0,0E0,2.7871828E0,2.8821151E0,0E0,2.783178E-1,0E0,0E0,0E0],"parents":[2147483647,0,0,2,2,3,3,5,5],"right_children":[2,-1,4,6,-1,8,-1,-1,-1],"split_conditions":[9.176E1,7.932075E-2,1.356E-1,6.988E2,-9.157775E-2,5.674E-2,-6.1714496E-2,1.1368593E-3,7.354548E-2],"split_indices":[22,0,24,3,0,9,0,0,0],"split_type":[0,0,0,0,0,0,0,0,0],"sum_hessian":[1.3924326E1,3.62374E0,1.0300587E1,5.9228435E0,4.3777432E0,3.4305737E0,2.4922698E0,1.0075371E0,2.4230366E0],"tree_param":{"num_deleted":"0","num_feature":"30","num_nodes":"9","size_leaf_vector":"1"}},{"base_weights":[1.839655E-3,3.606686E-1,-7.0719026E-2,7.212849E-1,-2.360344E-1,1.0687529E-2,8.644812E-2,5.067246E-2,-6.668597E-2],"categories":[],"categories_nodes":[],"categories_segments":[],"categories_sizes":[],"default_left":[0,0,0,0,0,0,0,0,0],"id":36,"left_children":[1,3,-1,5,7,-1,-1,-1,-1],"loss_changes":[3.8096514E0,2.3970304E0,0E0,3.9648795E-1,1.7818365E0,0E0,0E0,0E0,0E0],"parents":[2147483647,0,0,1,1,3,3,4,4],"right_children":[2,4,-1,6,8,-1,-1,-1,-1],"split_conditions":[8.765E2,1.38E-1,-7.0719026E-2,6.917E-2,9.162E1,1.0687529E-2,8.644812E-2,5.067246E-2,-6.668597E-2],"split_indices":[23,24,0,29,22,0,0,0,0],"split_type":[0,0,0,0,0,0,0,0,0],"sum_hessian":[1.3107522E1,9.122915E0,3.984606E0,5.6606917E0,3.462224E0,1.5320122E0,4.1286793E0,1.1211076E0,2.3411164E0],"tree_param":{"num_deleted":"0","num_feature":"30","num_nodes":"9","size_leaf_vector":"1"}},{"base_weights":[-2.0872349E-2,5.940172E-1,-4.2032656E-1,7.439574E-2,-0E0,2.5363987E-2,-5.5231E-1,1.4955367E-2,-6.904883E-1,3.5015044E-3,-8.619274E-2],"categories":[],"categories_nodes":[],"categories_segments":[],"categories_sizes":[],"default_left":[0,0,0,0,0,0,0,0,0,0,0],"id":37,"left_children":[1,3,5,-1,-1,-1,7,-1,9,-1,-1],"loss_changes":[3.6002018E0,5.213299E-1,9.7018886E-1,0E0,0E0,0E0,9.295089E-1,0E0,9.77211E-1,0E0,0E0],"parents":[2147483647,0,0,1,1,2,2,6,6,8,8],"right_children":[2,4,6,-1,-1,-1,8,-1,10,-1,-1],"split_conditions":[2.08E-1,3.279E-2,1.551E1,7.439574E-2,-0E0,2.5363987E-2,1.449E1,1.4955367E-2,1.092E-1,3.5015044E-3,-8.619274E-2],"split_indices":[26,7,1,0,0,0,20,0,24,0,0],"split_type":[0,0,0,0,0,0,0,0,0,0,0],"sum_hessian":[1.2711776E1,4.71557E0,7.9962053E0,3.5857835E0,1.1297866E0,1.0344443E0,6.961761E0,1.0125552E0,5.949206E0,1.1777239E0,4.771482E0],"tree_param":{"num_deleted":"0","num_feature":"30","num_nodes":"11","size_leaf_vector":"1"}},{"base_weights":[7.55467E-3,6.158677E-1,-3.2930487E-1,7.593593E-2,-0E0,3.4768087E-1,-6.892282E-1,6.0194522E-2,-1.9344945E-3,-4.916221E-3,-8.0256677E-1,-1.7397163E-2,-9.032556E-2],"categories":[],"categories_nodes":[],"categories_segments":[],"categories_sizes":[],"default_left":[0,0,0,0,0,0,0,0,0,0,0,0,0],"id":38,"left_children":[1,3,5,-1,-1,7,9,-1,-1,-1,11,-1,-1],"loss_changes":[2.9444606E0,4.2416775E-1,2.483021E0,0E0,0E0,4.1663492E-1,3.3612347E-1,0E0,0E0,0E0,6.412339E-2,0E0,0E0],"parents":[2147483647,0,0,1,1,2,2,5,5,6,6,10,10],"right_children":[2,4,6,-1,-1,8,10,-1,-1,-1,12,-1,-1],"split_conditions":[8.737E-2,4.276E1,2.358E1,7.593593E-2,-0E0,2.911E1,2.675E-1,6.0194522E-2,-1.9344945E-3,-4.916221E-3,8.946E-2,-1.7397163E-2,-9.032556E-2],"split_indices":[27,13,21,0,0,13,28,0,0,0,4,0,0],"split_type":[0,0,0,0,0,0,0,0,0,0,0,0,0],"sum_hessian":[1.2239552E1,4.172785E0,8.066767E0,3.1381526E0,1.0346322E0,2.7154353E0,5.351331E0,1.3869774E0,1.328458E0,1.1534485E0,4.1978827E0,1.0933192E0,3.1045632E0],"tree_param":{"num_deleted":"0","num_feature":"30","num_nodes":"13","size_leaf_vector":"1"}},{"base_weights":[1.78511E-3,3.050163E-1,-5.243017E-1,5.842241E-1,-2.3586541E-1,3.0443594E-3,-7.166699E-2,7.200968E-2,-3.1270273E-4,1.7970419E-2,-5.7503678E-2],"categories":[],"categories_nodes":[],"categories_segments":[],"categories_sizes":[],"default_left":[0,0,0,0,0,0,0,0,0,0,0],"id":39,"left_children":[1,3,5,7,9,-1,-1,-1,-1,-1,-1],"loss_changes":[2.1363807E0,1.4864118E0,6.056186E-1,5.645249E-1,6.435598E-1,0E0,0E0,0E0,0E0,0E0,0E0],"parents":[2147483647,0,0,1,1,2,2,3,3,4,4],"right_children":[2,4,6,8,10,-1,-1,-1,-1,-1,-1],"split_conditions":[6.988E2,2.925E1,1.72E-3,4.564E-1,1.306E-1,3.0443594E-3,-7.166699E-2,7.200968E-2,-3.1270273E-4,1.7970419E-2,-5.7503678E-2],"split_indices":[3,21,19,10,24,0,0,0,0,0,0],"split_type":[0,0,0,0,0,0,0,0,0,0,0],"sum_hessian":[1.1527045E1,7.6994553E0,3.82759E0,5.147185E0,2.5522702E0,1.0684205E0,2.7591696E0,4.134901E0,1.0122837E0,1.2257504E0,1.3265198E0],"tree_param":{"num_deleted":"0","num_feature":"30","num_nodes":"11","size_leaf_vector":"1"}},{"base_weights":[-1.6463365E-2,2.430312E-1,-5.731655E-1,-3.8370085E-1,5.5147207E-1,-4.3335273E-3,-6.985359E-2,2.4559556E-2,-8.523094E-2,7.014738E-1,-2.5510779E-3,8.065417E-2,9.413191E-3],"categories":[],"categories_nodes":[],"categories_segments":[],"categories_sizes":[],"default_left":[0,0,0,0,0,0,0,0,0,0,0,0,0],"id":40,"left_children":[1,3,5,7,9,-1,-1,-1,-1,11,-1,-1,-1],"loss_changes":[1.9980589E0,2.0068135E0,1.9036281E-1,1.3071682E0,6.638787E-1,0E0,0E0,0E0,0E0,1.8348289E-1,0E0,0E0,0E0],"parents":[2147483647,0,0,1,1,2,2,3,3,4,4,9,9],"right_children":[2,4,6,8,10,-1,-1,-1,-1,12,-1,-1,-1],"split_conditions":[1.456E-1,1.203E-2,2.491E1,1.003E-2,8.887E2,-4.3335273E-3,-6.985359E-2,2.4559556E-2,-8.523094E-2,3.209E-1,-2.5510779E-3,8.065417E-2,9.413191E-3],"split_indices":[27,15,13,15,23,0,0,0,0,26,0,0,0],"split_type":[0,0,0,0,0,0,0,0,0,0,0,0,0],"sum_hessian":[1.1638331E1,8.199929E0,3.438403E0,2.51711E0,5.682819E0,1.0680387E0,2.3703642E0,1.1863981E0,1.330712E0,4.476571E0,1.2062477E0,3.3963735E0,1.0801977E0],"tree_param":{"num_deleted":"0","num_feature":"30","num_nodes":"13","size_leaf_vector":"1"}},{"base_weights":[-0E0,2.521016E-1,-7.2176985E-2,4.973532E-1,-2.0260765E-1,-5.603636E-2,8.262587E-2,3.355131E-2,-5.4648798E-2,3.006664E-2,-4.3168258E-2],"categories":[],"categories_nodes":[],"categories_segments":[],"categories_sizes":[],"default_left":[0,0,0,0,0,0,0,0,0,0,0],"id":41,"left_children":[1,3,-1,5,7,9,-1,-1,-1,-1,-1],"loss_changes":[2.4446244E0,1.2425292E0,0E0,1.3813357E0,9.561904E-1,5.9843457E-1,0E0,0E0,0E0,0E0,0E0],"parents":[2147483647,0,0,1,1,3,3,4,4,5,5],"right_children":[2,4,-1,6,8,10,-1,-1,-1,-1,-1],"split_conditions":[1.204E2,1.38E-1,-7.2176985E-2,6.969E-2,9.188E1,1.081E-1,8.262587E-2,3.355131E-2,-5.4648798E-2,3.006664E-2,-4.3168258E-2],"split_indices":[22,24,0,29,22,24,0,0,0,0,0],"split_type":[0,0,0,0,0,0,0,0,0,0,0],"sum_hessian":[1.144984E1,8.974043E0,2.4757965E0,5.9116683E0,3.0623746E0,2.399707E0,3.5119615E0,1.0900868E0,1.9722878E0,1.1967256E0,1.2029814E0],"tree_param":{"num_deleted":"0","num_feature":"30","num_nodes":"11","size_leaf_vector":"1"}},{"base_weights":[3.6510352E-2,6.872198E-1,-3.0056846E-1,1.3667866E-2,7.794195E-2,2.3761433E-1,-5.873795E-1,5.7790335E-2,-1.7784003E-2,-6.712772E-3,-6.802154E-1,-8.452152E-2,-2.043476E-2],"categories":[],"categories_nodes":[],"categories_segments":[],"categories_sizes":[],"default_left":[0,0,0,0,0,0,0,0,0,0,0,0,0],"id":42,"left_children":[1,3,5,-1,-1,7,9,-1,-1,-1,11,-1,-1],"loss_changes":[2.8445938E0,2.7719498E-2,1.4713408E0,0E0,0E0,6.3921636E-1,1.6406965E-1,0E0,0E0,0E0,9.335041E-2,0E0,0E0],"parents":[2147483647,0,0,1,1,2,2,5,5,6,6,10,10],"right_children":[2,4,6,-1,-1,8,10,-1,-1,-1,12,-1,-1],"split_conditions":[8.568E-2,4.815E-2,2.375E1,1.3667866E-2,7.794195E-2,3.066E1,1.938E1,5.7790335E-2,-1.7784003E-2,-6.712772E-3,2.722E-2,-8.452152E-2,-2.043476E-2],"split_indices":[27,27,21,0,0,13,1,0,0,0,15,0,0],"split_type":[0,0,0,0,0,0,0,0,0,0,0,0,0],"sum_hessian":[1.0850861E1,3.4495797E0,7.4012804E0,1.0065151E0,2.4430645E0,2.5114923E0,4.889788E0,1.2980087E0,1.2134837E0,1.1644526E0,3.7253356E0,2.0338368E0,1.6914986E0],"tree_param":{"num_deleted":"0","num_feature":"30","num_nodes":"13","size_leaf_vector":"1"}},{"base_weights":[-7.097941E-2,2.6595795E-1,-5.3224385E-1,6.955841E-2,-1.13051705E-1,1.8209206E-2,-7.672012E-2,4.8225775E-2,-4.466477E-1,-6.67796E-2,-0E0],"categories":[],"categories_nodes":[],"categories_segments":[],"categories_sizes":[],"default_left":[0,0,0,0,0,0,0,0,0,0,0],"id":43,"left_children":[1,3,5,-1,7,-1,-1,-1,9,-1,-1],"loss_changes":[1.9429097E0,1.2995782E0,1.0841846E0,0E0,1.1115042E0,0E0,0E0,0E0,3.9070892E-1,0E0,0E0],"parents":[2147483647,0,0,1,1,2,2,4,4,8,8],"right_children":[2,4,6,-1,8,-1,-1,-1,10,-1,-1],"split_conditions":[3.133E1,2.6E1,1.037E-1,6.955841E-2,2.675E-1,1.8209206E-2,-7.672012E-2,4.8225775E-2,1.791E-2,-6.67796E-2,-0E0],"split_indices":[13,21,24,0,28,0,0,0,18,0,0],"split_type":[0,0,0,0,0,0,0,0,0,0,0],"sum_hessian":[1.0419114E1,6.1403933E0,4.2787204E0,2.6101909E0,3.5302026E0,1.0093637E0,3.2693565E0,1.0001014E0,2.530101E0,1.4552976E0,1.0748035E0],"tree_param":{"num_deleted":"0","num_feature":"30","num_nodes":"11","size_leaf_vector":"1"}},{"base_weights":[6.6029187E-3,5.974245E-1,-2.984555E-1,7.173276E-2,6.420735E-3,1.7694338E-1,-6.4255106E-1,-2.4359513E-2,5.9658725E-2,-7.8209706E-2,-6.976716E-3],"categories":[],"categories_nodes":[],"categories_segments":[],"categories_sizes":[],"default_left":[0,0,0,0,0,0,0,0,0,0,0],"id":44,"left_children":[1,3,5,-1,-1,7,9,-1,-1,-1,-1],"loss_changes":[2.2066813E0,1.4561939E-1,1.4472837E0,0E0,0E0,8.8046455E-1,2.5207424E-1,0E0,0E0,0E0,0E0],"parents":[2147483647,0,0,1,1,2,2,5,5,6,6],"right_children":[2,4,6,-1,-1,8,10,-1,-1,-1,-1],"split_conditions":[2.331E1,1.416E-1,9.037E-2,7.173276E-2,6.420735E-3,5.698E-2,7.594E-3,-2.4359513E-2,5.9658725E-2,-7.8209706E-2,-6.976716E-3],"split_indices":[21,27,4,0,0,9,14,0,0,0,0],"split_type":[0,0,0,0,0,0,0,0,0,0,0],"sum_hessian":[1.0088183E1,3.2204304E0,6.867753E0,2.194203E0,1.0262276E0,2.9656277E0,3.9021251E0,1.5717494E0,1.3938782E0,2.7034683E0,1.1986568E0],"tree_param":{"num_deleted":"0","num_feature":"30","num_nodes":"11","size_leaf_vector":"1"}},{"base_weights":[-6.8610352E-3,2.7832678E-1,-4.570156E-1,6.882344E-2,-1.2480618E-1,5.2880816E-4,-6.368878E-2,3.176219E-2,-4.0098974E-1,-5.80554E-2,-0E0],"categories":[],"categories_nodes":[],"categories_segments":[],"categories_sizes":[],"default_left":[0,0,0,0,0,0,0,0,0,0,0],"id":45,"left_children":[1,3,5,-1,7,-1,-1,-1,9,-1,-1],"loss_changes":[1.5207846E0,1.306501E0,4.5490682E-1,0E0,6.5814626E-1,0E0,0E0,0E0,2.1306628E-1,0E0,0E0],"parents":[2147483647,0,0,1,1,2,2,4,4,8,8],"right_children":[2,4,6,-1,8,-1,-1,-1,10,-1,-1],"split_conditions":[3.444E1,2.582E1,1.136E-1,6.882344E-2,9.14E-2,5.2880816E-4,-6.368878E-2,3.176219E-2,3.761E-3,-5.80554E-2,-0E0],"split_indices":[13,21,24,0,27,0,0,0,19,0,0],"split_type":[0,0,0,0,0,0,0,0,0,0,0],"sum_hessian":[9.716086E0,6.0455766E0,3.67051E0,2.7699351E0,3.2756414E0,1.1442454E0,2.5262647E0,1.0621035E0,2.213538E0,1.1652428E0,1.048295E0],"tree_param":{"num_deleted":"0","num_feature":"30","num_nodes":"11","size_leaf_vector":"1"}},{"base_weights":[-0E0,5.0068516E-1,-3.055408E-1,6.286698E-2,1.918995E-3,2.9338906E-2,-5.1625586E-1,2.6986448E-3,-6.68925E-1,-1.355956E-2,-8.257946E-2],"categories":[],"categories_nodes":[],"categories_segments":[],"categories_sizes":[],"default_left":[0,0,0,0,0,0,0,0,0,0,0],"id":46,"left_children":[1,3,5,-1,-1,-1,7,-1,9,-1,-1],"loss_changes":[1.8260076E0,1.9895625E-1,1.1255049E0,0E0,0E0,0E0,5.8522165E-1,0E0,2.0322728E-1,0E0,0E0],"parents":[2147483647,0,0,1,1,2,2,6,6,8,8],"right_children":[2,4,6,-1,-1,-1,8,-1,10,-1,-1],"split_conditions":[2.08E-1,3.279E-2,6.458E2,6.286698E-2,1.918995E-3,2.9338906E-2,1.695E1,2.6986448E-3,8.946E-2,-1.355956E-2,-8.257946E-2],"split_indices":[26,7,23,0,0,0,1,0,4,0,0],"split_type":[0,0,0,0,0,0,0,0,0,0,0],"sum_hessian":[1.0017056E1,3.4756315E0,6.5414248E0,2.3402336E0,1.1353979E0,1.4768233E0,5.0646014E0,1.1479781E0,3.9166234E0,1.4588032E0,2.4578202E0],"tree_param":{"num_deleted":"0","num_feature":"30","num_nodes":"11","size_leaf_vector":"1"}},{"base_weights":[-6.1893333E-2,4.4840938E-1,-3.677466E-1,6.410029E-2,-0E0,2.3339763E-2,-5.754187E-1,-0E0,-7.7588536E-2],"categories":[],"categories_nodes":[],"categories_segments":[],"categories_sizes":[],"default_left":[0,0,0,0,0,0,0,0,0],"id":47,"left_children":[1,3,5,-1,-1,-1,7,-1,-1],"loss_changes":[1.8207064E0,3.765148E-1,1.0845176E0,0E0,0E0,0E0,6.5404594E-1,0E0,0E0],"parents":[2147483647,0,0,1,1,2,2,6,6],"right_children":[2,4,6,-1,-1,-1,8,-1,-1],"split_conditions":[2.331E1,3.169E-1,9.162E1,6.410029E-2,-0E0,2.3339763E-2,2.675E-1,-0E0,-7.7588536E-2],"split_indices":[21,26,22,0,0,0,28,0,0],"split_type":[0,0,0,0,0,0,0,0,0],"sum_hessian":[9.660531E0,3.3230767E0,6.3374543E0,2.0318966E0,1.2911801E0,1.4717642E0,4.86569E0,1.5530268E0,3.3126633E0],"tree_param":{"num_deleted":"0","num_feature":"30","num_nodes":"9","size_leaf_vector":"1"}},{"base_weights":[1.5156085E-2,2.3928171E-1,-5.6977063E-2,6.424265E-2,-1.4717233E-1,3.01025E-2,-4.2406896E-1,-6.657188E-2,-4.1155153E-4],"categories":[],"categories_nodes":[],"categories_segments":[],"categories_sizes":[],"default_left":[0,0,0,0,0,0,0,0,0],"id":48,"left_children":[1,3,-1,-1,5,-1,7,-1,-1],"loss_changes":[1.4092294E0,1.3951054E0,0E0,0E0,7.340198E-1,0E0,2.8666872E-1,0E0,0E0],"parents":[2147483647,0,0,1,1,4,4,6,6],"right_children":[2,4,-1,-1,6,-1,8,-1,-1],"split_conditions":[4.855E1,2.807E-1,-5.6977063E-2,6.424265E-2,6.458E2,3.01025E-2,9.883E-3,-6.657188E-2,-4.1155153E-4],"split_indices":[13,28,0,0,23,0,17,0,0],"split_type":[0,0,0,0,0,0,0,0,0],"sum_hessian":[8.961646E0,7.0298924E0,1.9317533E0,3.2431126E0,3.7867799E0,1.2748944E0,2.5118856E0,1.071805E0,1.4400805E0],"tree_param":{"num_deleted":"0","num_feature":"30","num_nodes":"9","size_leaf_vector":"1"}},{"base_weights":[-0E0,2.9198366E-1,-5.2607816E-2,4.4729176E-1,-1.9676916E-2,-1.139047E-2,6.237634E-1,7.071673E-2,1.2384565E-2],"categories":[],"categories_nodes":[],"categories_segments":[],"categories_sizes":[],"default_left":[0,0,0,0,0,0,0,0,0],"id":49,"left_children":[1,3,-1,5,-1,-1,7,-1,-1],"loss_changes":[1.6885667E0,6.626676E-1,0E0,7.118169E-1,0E0,0E0,3.0313134E-2,0E0,0E0],"parents":[2147483647,0,0,1,1,3,3,6,6],"right_children":[2,4,-1,6,-1,-1,8,-1,-1],"split_conditions":[6.988E2,1.502E-1,-5.2607816E-2,1.104E-2,-1.9676916E-2,-1.139047E-2,1.349E-1,7.071673E-2,1.2384565E-2],"split_indices":[3,24,0,15,0,0,24,0,0],"split_type":[0,0,0,0,0,0,0,0,0],"sum_hessian":[9.111281E0,6.2404413E0,2.8708396E0,4.9552684E0,1.2851733E0,1.1346989E0,3.8205695E0,2.7475767E0,1.0729928E0],"tree_param":{"num_deleted":"0","num_feature":"30","num_nodes":"9","size_leaf_vector":"1"}},{"base_weights":[7.828059E-2,2.8556472E-1,-5.8278304E-2,5.498315E-1,-2.1873143E-1,6.915382E-2,-0E0,1.7498933E-2,-5.400992E-2],"categories":[],"categories_nodes":[],"categories_segments":[],"categories_sizes":[],"default_left":[0,0,0,0,0,0,0,0,0],"id":50,"left_children":[1,3,-1,5,7,-1,-1,-1,-1],"loss_changes":[1.441115E0,1.223958E0,0E0,4.499545E-1,5.5457747E-1,0E0,0E0,0E0,0E0],"parents":[2147483647,0,0,1,1,3,3,4,4],"right_children":[2,4,-1,6,8,-1,-1,-1,-1],"split_conditions":[1.823E1,2.146E1,-5.8278304E-2,1.073E-1,8.983E-2,6.915382E-2,-0E0,1.7498933E-2,-5.400992E-2],"split_indices":[20,1,0,4,4,0,0,0,0],"split_type":[0,0,0,0,0,0,0,0,0],"sum_hessian":[8.519329E0,7.0332623E0,1.4860668E0,4.6857734E0,2.347489E0,3.5352018E0,1.1505716E0,1.1198415E0,1.2276477E0],"tree_param":{"num_deleted":"0","num_feature":"30","num_nodes":"9","size_leaf_vector":"1"}},{"base_weights":[-5.1267292E-2,2.560283E-1,-5.010996E-1,5.4128313E-1,-1.8508251E-1,3.3203796E-3,-7.146053E-2,6.277725E-2,9.115932E-3,-3.370702E-2,9.45009E-4],"categories":[],"categories_nodes":[],"categories_segments":[],"categories_sizes":[],"default_left":[0,0,0,0,0,0,0,0,0,0,0],"id":51,"left_children":[1,3,5,7,9,-1,-1,-1,-1,-1,-1],"loss_changes":[1.4619025E0,9.1045314E-1,5.8399117E-1,3.1709075E-2,1.2539288E-1,0E0,0E0,0E0,0E0,0E0,0E0],"parents":[2147483647,0,0,1,1,2,2,3,3,4,4],"right_children":[2,4,6,8,10,-1,-1,-1,-1,-1,-1],"split_conditions":[3.133E1,2.989E1,1.708E1,3.113E-1,7.255E-2,3.3203796E-3,-7.146053E-2,6.277725E-2,9.115932E-3,-3.370702E-2,9.45009E-4],"split_indices":[13,21,1,28,5,0,0,0,0,0,0],"split_type":[0,0,0,0,0,0,0,0,0,0,0],"sum_hessian":[8.470344E0,5.156379E0,3.313965E0,3.1311533E0,2.0252256E0,1.0535473E0,2.2604177E0,2.109076E0,1.0220773E0,1.0141824E0,1.0110433E0],"tree_param":{"num_deleted":"0","num_feature":"30","num_nodes":"11","size_leaf_vector":"1"}},{"base_weights":[2.5575407E-2,2.0715792E-1,-5.5922914E-2,-3.364759E-2,4.1924128E-1,5.9679484E-1,-1.8882928E-2,6.903883E-2,6.256889E-3],"categories":[],"categories_nodes":[],"categories_segments":[],"categories_sizes":[],"default_left":[0,0,0,0,0,0,0,0,0],"id":52,"left_children":[1,3,-1,-1,5,7,-1,-1,-1],"loss_changes":[1.0801443E0,1.0766008E0,0E0,0E0,8.404701E-1,1.46137E-1,0E0,0E0,0E0],"parents":[2147483647,0,0,1,1,4,4,5,5],"right_children":[2,4,-1,-1,6,8,-1,-1,-1],"split_conditions":[1.204E2,1.203E-2,-5.5922914E-2,-3.364759E-2,1.085E-1,2.241E1,-1.8882928E-2,6.903883E-2,6.256889E-3],"split_indices":[22,15,0,0,4,1,0,0,0],"split_type":[0,0,0,0,0,0,0,0,0],"sum_hessian":[8.4123745E0,7.042449E0,1.3699261E0,1.6794559E0,5.362993E0,4.292579E0,1.0704138E0,3.2446349E0,1.0479442E0],"tree_param":{"num_deleted":"0","num_feature":"30","num_nodes":"9","size_leaf_vector":"1"}},{"base_weights":[1.5826946E-2,5.4108866E-2,-1.8976907E-1,4.0527634E-2,-3.781898E-1,1.3104063E-2,-6.0822394E-2,3.4081914E-2,-2.5604919E-2],"categories":[],"categories_nodes":[],"categories_segments":[],"categories_sizes":[],"default_left":[0,0,0,0,0,0,0,0,0],"id":53,"left_children":[1,-1,3,-1,5,7,-1,-1,-1],"loss_changes":[1.1528748E0,0E0,9.7562575E-1,0E0,6.286081E-1,3.7147117E-1,0E0,0E0,0E0],"parents":[2147483647,0,0,2,2,4,4,5,5],"right_children":[2,-1,4,-1,6,8,-1,-1,-1],"split_conditions":[2.207E1,5.4108866E-2,1.975E1,4.0527634E-2,2.666E-1,4.276E1,-6.0822394E-2,3.4081914E-2,-2.5604919E-2],"split_indices":[21,0,13,0,28,13,0,0,0],"split_type":[0,0,0,0,0,0,0,0,0],"sum_hessian":[8.399434E0,2.0406127E0,6.3588214E0,1.1248453E0,5.233976E0,2.1259673E0,3.1080086E0,1.0061601E0,1.1198071E0],"tree_param":{"num_deleted":"0","num_feature":"30","num_nodes":"9","size_leaf_vector":"1"}},{"base_weights":[-0E0,5.3698678E-2,-1.8950644E-1,2.545625E-1,-5.1695585E-1,-1.0104186E-2,5.4835256E-2,-7.1886316E-2,-0E0],"categories":[],"categories_nodes":[],"categories_segments":[],"categories_sizes":[],"default_left":[0,0,0,0,0,0,0,0,0],"id":54,"left_children":[1,-1,3,5,7,-1,-1,-1,-1],"loss_changes":[1.0443345E0,0E0,1.208613E0,4.7701713E-1,5.37887E-1,0E0,0E0,0E0,0E0],"parents":[2147483647,0,0,2,2,3,3,4,4],"right_children":[2,-1,4,6,8,-1,-1,-1,-1],"split_conditions":[2.182E1,5.3698678E-2,9.037E-2,5.698E-2,2.079E-2,-1.0104186E-2,5.4835256E-2,-7.1886316E-2,-0E0],"split_indices":[21,0,4,9,18,0,0,0,0],"split_type":[0,0,0,0,0,0,0,0,0],"sum_hessian":[7.948006E0,1.7217126E0,6.2262936E0,2.607434E0,3.6188598E0,1.3224419E0,1.284992E0,2.4295068E0,1.189353E0],"tree_param":{"num_deleted":"0","num_feature":"30","num_nodes":"9","size_leaf_vector":"1"}},{"base_weights":[1.1172596E-2,4.520873E-1,-2.2724888E-1,7.02171E-4,6.1200213E-2,7.892139E-2,-5.284522E-1,3.8016506E-2,-2.2371998E-2,-6.671012E-2,-1.1225012E-2],"categories":[],"categories_nodes":[],"categories_segments":[],"categories_sizes":[],"default_left":[0,0,0,0,0,0,0,0,0,0,0],"id":55,"left_children":[1,3,5,-1,-1,7,9,-1,-1,-1,-1],"loss_changes":[1.0300748E0,1.8309224E-1,6.496496E-1,0E0,0E0,4.4101936E-1,4.176694E-2,0E0,0E0,0E0,0E0],"parents":[2147483647,0,0,1,1,2,2,5,5,6,6],"right_children":[2,4,6,-1,-1,8,10,-1,-1,-1,-1],"split_conditions":[8.568E-2,9.995E-2,2.749E1,7.02171E-4,6.1200213E-2,8.092E2,1.178E-2,3.8016506E-2,-2.2371998E-2,-6.671012E-2,-1.1225012E-2],"split_indices":[27,25,21,0,0,23,17,0,0,0,0],"split_type":[0,0,0,0,0,0,0,0,0,0,0],"sum_hessian":[7.607536E0,2.50264E0,5.1048956E0,1.1027559E0,1.3998841E0,2.7329035E0,2.371992E0,1.406834E0,1.3260695E0,1.1468462E0,1.2251459E0],"tree_param":{"num_deleted":"0","num_feature":"30","num_nodes":"11","size_leaf_vector":"1"}},{"base_weights":[3.8524408E-2,2.8032753E-1,-4.340199E-2,-1.9956788E-2,4.9673155E-1,6.938296E-2,-0E0],"categories":[],"categories_nodes":[],"categories_segments":[],"categories_sizes":[],"default_left":[0,0,0,0,0,0,0],"id":56,"left_children":[1,3,-1,-1,5,-1,-1],"loss_changes":[9.9677265E-1,7.418629E-1,0E0,0E0,3.978516E-1,0E0,0E0],"parents":[2147483647,0,0,1,1,4,4],"right_children":[2,4,-1,-1,6,-1,-1],"split_conditions":[1.456E-1,6.095E-2,-4.340199E-2,-1.9956788E-2,2.02E1,6.938296E-2,-0E0],"split_indices":[27,5,0,0,1,0,0],"split_type":[0,0,0,0,0,0,0],"sum_hessian":[6.7932186E0,4.9028153E0,1.8904033E0,1.404317E0,3.4984984E0,2.1321616E0,1.3663367E0],"tree_param":{"num_deleted":"0","num_feature":"30","num_nodes":"7","size_leaf_vector":"1"}},{"base_weights":[5.4470442E-2,3.040415E-1,-4.444543E-2,-2.1203957E-2,5.2725464E-1,6.491522E-2,7.961683E-4],"categories":[],"categories_nodes":[],"categories_segments":[],"categories_sizes":[],"default_left":[0,0,0,0,0,0,0],"id":57,"left_children":[1,3,-1,-1,5,-1,-1],"loss_changes":[1.1550126E0,8.6470395E-1,0E0,0E0,2.3255527E-1,0E0,0E0],"parents":[2147483647,0,0,1,1,4,4],"right_children":[2,4,-1,-1,6,-1,-1],"split_conditions":[1.456E-1,5.969E-2,-4.444543E-2,-2.1203957E-2,2.941E-1,6.491522E-2,7.961683E-4],"split_indices":[27,5,0,0,28,0,0],"split_type":[0,0,0,0,0,0,0],"sum_hessian":[7.303444E0,5.2622232E0,2.0412207E0,1.4686587E0,3.7935646E0,2.713877E0,1.0796875E0],"tree_param":{"num_deleted":"0","num_feature":"30","num_nodes":"7","size_leaf_vector":"1"}},{"base_weights":[3.2290563E-3,3.0796298E-1,-3.290571E-1,5.20037E-2,-2.6773312E-3,6.8546273E-3,-5.5429406E-2],"categories":[],"categories_nodes":[],"categories_segments":[],"categories_sizes":[],"default_left":[0,0,0,0,0,0,0],"id":58,"left_children":[1,3,5,-1,-1,-1,-1],"loss_changes":[9.280181E-1,4.141457E-1,4.6645194E-1,0E0,0E0,0E0,0E0],"parents":[2147483647,0,0,1,1,2,2],"right_children":[2,4,6,-1,-1,-1,-1],"split_conditions":[3.133E1,1.385E-1,1.288E-2,5.20037E-2,-2.6773312E-3,6.8546273E-3,-5.5429406E-2],"split_indices":[13,24,17,0,0,0,0],"split_type":[0,0,0,0,0,0,0],"sum_hessian":[7.1848645E0,3.9429746E0,3.2418897E0,2.257741E0,1.6852337E0,1.26338E0,1.9785095E0],"tree_param":{"num_deleted":"0","num_feature":"30","num_nodes":"7","size_leaf_vector":"1"}},{"base_weights":[8.100056E-3,1.795921E-1,-5.2722782E-2,-3.5189033E-2,4.0698394E-1,5.496441E-1,-0E0,6.8427555E-2,8.321585E-3],"categories":[],"categories_nodes":[],"categories_segments":[],"categories_sizes":[],"default_left":[0,0,0,0,0,0,0,0,0],"id":59,"left_children":[1,3,-1,-1,5,7,-1,-1,-1],"loss_changes":[8.4815395E-1,1.0418644E0,0E0,0E0,3.650772E-1,1.408906E-1,0E0,0E0,0E0],"parents":[2147483647,0,0,1,1,4,4,5,5],"right_children":[2,4,-1,-1,6,8,-1,-1,-1],"split_conditions":[1.712E-1,5.969E-2,-5.2722782E-2,-3.5189033E-2,8.765E2,1.357E-1,-0E0,6.8427555E-2,8.321585E-3],"split_indices":[27,5,0,0,23,27,0,0,0],"split_type":[0,0,0,0,0,0,0,0,0],"sum_hessian":[7.585982E0,6.3902035E0,1.195778E0,1.6189528E0,4.7712507E0,3.3726118E0,1.398639E0,2.0883684E0,1.2842435E0],"tree_param":{"num_deleted":"0","num_feature":"30","num_nodes":"9","size_leaf_vector":"1"}},{"base_weights":[9.2037685E-2,5.8524944E-2,-1.8394701E-1,1.7846094E-1,-5.7594646E-2,4.5119107E-2,-1.9882265E-2],"categories":[],"categories_nodes":[],"categories_segments":[],"categories_sizes":[],"default_left":[0,0,0,0,0,0,0],"id":60,"left_children":[1,-1,3,5,-1,-1,-1],"loss_changes":[1.1774889E0,0E0,9.212393E-1,4.7293007E-1,0E0,0E0,0E0],"parents":[2147483647,0,0,2,2,3,3],"right_children":[2,-1,4,6,-1,-1,-1],"split_conditions":[1.491E1,5.8524944E-2,2.878E-1,2.074E1,-5.7594646E-2,4.5119107E-2,-1.9882265E-2],"split_indices":[20,0,28,1,0,0,0],"split_type":[0,0,0,0,0,0,0],"sum_hessian":[6.564738E0,2.0833461E0,4.4813914E0,2.4790869E0,2.0023046E0,1.4790632E0,1.0000237E0],"tree_param":{"num_deleted":"0","num_feature":"30","num_nodes":"7","size_leaf_vector":"1"}},{"base_weights":[-0E0,4.4211906E-1,-2.4411565E-1,5.6540627E-2,3.5874029E-3,1.2700451E-2,-4.209832E-1,-0E0,-5.811853E-2],"categories":[],"categories_nodes":[],"categories_segments":[],"categories_sizes":[],"default_left":[0,0,0,0,0,0,0,0,0],"id":61,"left_children":[1,3,5,-1,-1,-1,7,-1,-1],"loss_changes":[9.88477E-1,8.62661E-2,4.5513168E-1,0E0,0E0,0E0,2.770217E-1,0E0,0E0],"parents":[2147483647,0,0,1,1,2,2,6,6],"right_children":[2,4,6,-1,-1,-1,8,-1,-1],"split_conditions":[2.331E1,3.103E-1,1.128E-1,5.6540627E-2,3.5874029E-3,1.2700451E-2,3.515E-2,-0E0,-5.811853E-2],"split_indices":[21,26,24,0,0,0,7,0,0],"split_type":[0,0,0,0,0,0,0,0,0],"sum_hessian":[6.999326E0,2.327905E0,4.671421E0,1.2965002E0,1.0314047E0,1.4162469E0,3.2551742E0,1.2024058E0,2.0527685E0],"tree_param":{"num_deleted":"0","num_feature":"30","num_nodes":"9","size_leaf_vector":"1"}},{"base_weights":[5.971308E-2,3.0926323E-1,-2.57416E-1,4.9960786E-1,-8.069226E-3,-0E0,-4.2054858E-2,5.9395887E-2,8.650566E-3],"categories":[],"categories_nodes":[],"categories_segments":[],"categories_sizes":[],"default_left":[0,0,0,0,0,0,0,0,0],"id":62,"left_children":[1,3,5,7,-1,-1,-1,-1,-1],"loss_changes":[6.79275E-1,4.4105333E-1,1.8846124E-1,1.9334495E-2,0E0,0E0,0E0,0E0,0E0],"parents":[2147483647,0,0,1,1,2,2,3,3],"right_children":[2,4,6,8,-1,-1,-1,-1,-1],"split_conditions":[3.133E1,3.167E1,1.119E-1,3.169E-1,-8.069226E-3,-0E0,-4.2054858E-2,5.9395887E-2,8.650566E-3],"split_indices":[13,21,27,26,0,0,0,0,0],"split_type":[0,0,0,0,0,0,0,0,0],"sum_hessian":[6.511801E0,3.8345277E0,2.6772728E0,2.5601285E0,1.2743994E0,1.2339522E0,1.4433206E0,1.5306592E0,1.0294691E0],"tree_param":{"num_deleted":"0","num_feature":"30","num_nodes":"9","size_leaf_vector":"1"}},{"base_weights":[-5.375273E-2,4.893517E-2,-2.3944132E-1,1.309654E-2,-4.5258546E-1,9.600044E-3,-6.888674E-2],"categories":[],"categories_nodes":[],"categories_segments":[],"categories_sizes":[],"default_left":[0,0,0,0,0,0,0],"id":63,"left_children":[1,-1,3,-1,5,-1,-1],"loss_changes":[8.4310544E-1,0E0,5.9336567E-1,0E0,6.9979966E-1,0E0,0E0],"parents":[2147483647,0,0,2,2,4,4],"right_children":[2,-1,4,-1,6,-1,-1],"split_conditions":[5.53E2,4.893517E-2,8.983E-2,1.309654E-2,1.7E1,9.600044E-3,-6.888674E-2],"split_indices":[23,0,4,0,1,0,0],"split_type":[0,0,0,0,0,0,0],"sum_hessian":[6.4460897E0,1.088515E0,5.3575745E0,1.9263349E0,3.4312396E0,1.0842862E0,2.3469534E0],"tree_param":{"num_deleted":"0","num_feature":"30","num_nodes":"7","size_leaf_vector":"1"}},{"base_weights":[3.5916075E-2,5.040268E-2,-1.9540693E-1,1.7428158E-2,-4.6095255E-1,-5.913527E-2,-2.2692129E-3],"categories":[],"categories_nodes":[],"categories_segments":[],"categories_sizes":[],"default_left":[0,0,0,0,0,0,0],"id":64,"left_children":[1,-1,3,-1,5,-1,-1],"loss_changes":[9.0461713E-1,0E0,6.361017E-1,0E0,1.2843114E-1,0E0,0E0],"parents":[2147483647,0,0,2,2,4,4],"right_children":[2,-1,4,-1,6,-1,-1],"split_conditions":[6.458E2,5.040268E-2,2.73E-1,1.7428158E-2,4.005E-3,-5.913527E-2,-2.2692129E-3],"split_indices":[23,0,28,0,19,0,0],"split_type":[0,0,0,0,0,0,0],"sum_hessian":[6.1594996E0,1.7902057E0,4.369294E0,1.8127346E0,2.5565593E0,1.5252445E0,1.0313148E0],"tree_param":{"num_deleted":"0","num_feature":"30","num_nodes":"7","size_leaf_vector":"1"}},{"base_weights":[-2.7650991E-2,1.170045E-1,-4.99577E-2,5.5167615E-2,-1.9726902E-1,1.8090349E-2,-4.6085943E-2],"categories":[],"categories_nodes":[],"categories_segments":[],"categories_sizes":[],"default_left":[0,0,0,0,0,0,0],"id":65,"left_children":[1,3,-1,-1,5,-1,-1],"loss_changes":[5.8778495E-1,9.8492455E-1,0E0,0E0,5.275079E-1,0E0,0E0],"parents":[2147483647,0,0,1,1,4,4],"right_children":[2,4,-1,-1,6,-1,-1],"split_conditions":[4.115E0,2.08E-1,-4.99577E-2,5.5167615E-2,7.346E2,1.8090349E-2,-4.6085943E-2],"split_indices":[12,26,0,0,23,0,0],"split_type":[0,0,0,0,0,0,0],"sum_hessian":[6.1934786E0,5.153877E0,1.0396018E0,1.9792161E0,3.1746607E0,1.2769467E0,1.897714E0],"tree_param":{"num_deleted":"0","num_feature":"30","num_nodes":"7","size_leaf_vector":"1"}},{"base_weights":[-7.3428177E-3,4.7121834E-2,-1.6787682E-1,3.236268E-2,-3.4111297E-1,4.8234448E-2,-6.1451174E-2,-2.9510481E-2,4.071859E-2],"categories":[],"categories_nodes":[],"categories_segments":[],"categories_sizes":[],"default_left":[0,0,0,0,0,0,0,0,0],"id":66,"left_children":[1,-1,3,-1,5,7,-1,-1,-1],"loss_changes":[6.365419E-1,0E0,6.7604256E-1,0E0,6.7535555E-1,5.084023E-1,0E0,0E0,0E0],"parents":[2147483647,0,0,2,2,4,4,5,5],"right_children":[2,-1,4,-1,6,8,-1,-1,-1],"split_conditions":[5.523E2,4.7121834E-2,2.119E1,3.236268E-2,8.983E-2,1.515E-2,-6.1451174E-2,-2.9510481E-2,4.071859E-2],"split_indices":[23,0,21,0,4,15,0,0,0],"split_type":[0,0,0,0,0,0,0,0,0],"sum_hessian":[6.650724E0,1.0279895E0,5.6227345E0,1.0886517E0,4.534083E0,2.0592756E0,2.4748073E0,1.0010478E0,1.0582279E0],"tree_param":{"num_deleted":"0","num_feature":"30","num_nodes":"9","size_leaf_vector":"1"}},{"base_weights":[9.6074045E-3,1.8357994E-1,-4.7140658E-2,4.7492465E-1,-2.4912734E-1,6.3620314E-2,-0E0,-3.811193E-2,-0E0],"categories":[],"categories_nodes":[],"categories_segments":[],"categories_sizes":[],"default_left":[0,0,0,0,0,0,0,0,0],"id":67,"left_children":[1,3,-1,5,7,-1,-1,-1,-1],"loss_changes":[6.750012E-1,9.337568E-1,0E0,2.9196918E-1,1.0205056E-1,0E0,0E0,0E0,0E0],"parents":[2147483647,0,0,1,1,3,3,4,4],"right_children":[2,4,-1,6,8,-1,-1,-1,-1],"split_conditions":[5.506E-1,2.925E1,-4.7140658E-2,9.697E-2,1.721E0,6.3620314E-2,-0E0,-3.811193E-2,-0E0],"split_indices":[10,21,0,6,12,0,0,0,0],"split_type":[0,0,0,0,0,0,0,0,0],"sum_hessian":[6.375948E0,5.289199E0,1.0867487E0,3.2407308E0,2.0484684E0,2.0845385E0,1.1561923E0,1.0051512E0,1.0433171E0],"tree_param":{"num_deleted":"0","num_feature":"30","num_nodes":"9","size_leaf_vector":"1"}},{"base_weights":[2.112665E-2,4.5459986E-2,-1.8618219E-1,-5.7168018E-2,7.297615E-2,4.3849796E-2,-3.5412397E-2],"categories":[],"categories_nodes":[],"categories_segments":[],"categories_sizes":[],"default_left":[0,0,0,0,0,0,0],"id":68,"left_children":[1,-1,3,-1,5,-1,-1],"loss_changes":[7.630677E-1,0E0,6.369159E-1,0E0,7.87518E-1,0E0,0E0],"parents":[2147483647,0,0,2,2,4,4],"right_children":[2,-1,4,-1,6,-1,-1],"split_conditions":[2.331E1,4.5459986E-2,1.203E-2,-5.7168018E-2,5.189E-2,4.3849796E-2,-3.5412397E-2],"split_indices":[21,0,15,0,7,0,0],"split_type":[0,0,0,0,0,0,0],"sum_hessian":[6.250913E0,1.7924637E0,4.4584494E0,1.4626746E0,2.9957747E0,1.726041E0,1.2697338E0],"tree_param":{"num_deleted":"0","num_feature":"30","num_nodes":"7","size_leaf_vector":"1"}},{"base_weights":[-0E0,-3.7067275E-2,2.0332941E-1,4.7984987E-1,-2.8058935E-2,5.962908E-2,2.0603146E-3],"categories":[],"categories_nodes":[],"categories_segments":[],"categories_sizes":[],"default_left":[0,0,0,0,0,0,0],"id":69,"left_children":[1,-1,3,5,-1,-1,-1],"loss_changes":[5.9823424E-1,0E0,8.761298E-1,1.3628793E-1,0E0,0E0,0E0],"parents":[2147483647,0,0,2,2,3,3],"right_children":[2,-1,4,6,-1,-1,-1],"split_conditions":[6.095E-2,-3.7067275E-2,1.456E-1,1.684E1,-2.8058935E-2,5.962908E-2,2.0603146E-3],"split_indices":[5,0,27,20,0,0,0],"split_type":[0,0,0,0,0,0,0],"sum_hessian":[6.1237884E0,1.7314819E0,4.3923063E0,2.9319744E0,1.460332E0,1.9271835E0,1.004791E0],"tree_param":{"num_deleted":"0","num_feature":"30","num_nodes":"7","size_leaf_vector":"1"}},{"base_weights":[7.469153E-2,3.227068E-1,-3.1011581E-2,5.2931596E-2,-4.784619E-3],"categories":[],"categories_nodes":[],"categories_segments":[],"categories_sizes":[],"default_left":[0,0,0,0,0],"id":70,"left_children":[1,3,-1,-1,-1],"loss_changes":[7.338977E-1,4.3165115E-1,0E0,0E0,0E0],"parents":[2147483647,0,0,1,1],"right_children":[2,4,-1,-1,-1],"split_conditions":[6.988E2,3.169E-1,-3.1011581E-2,5.2931596E-2,-4.784619E-3],"split_indices":[3,26,0,0,0],"split_type":[0,0,0,0,0],"sum_hessian":[5.6279836E0,3.6784241E0,1.9495593E0,2.2598295E0,1.4185944E0],"tree_param":{"num_deleted":"0","num_feature":"30","num_nodes":"5","size_leaf_vector":"1"}},{"base_weights":[1.3976137E-1,4.9191132E-2,-1.6274816E-1,5.90482E-3,-3.8200397E-2],"categories":[],"categories_nodes":[],"categories_segments":[],"categories_sizes":[],"default_left":[0,0,0,0,0],"id":71,"left_children":[1,-1,3,-1,-1],"loss_changes":[7.7112156E-1,0E0,2.4557689E-1,0E0,0E0],"parents":[2147483647,0,0,2,2],"right_children":[2,-1,4,-1,-1],"split_conditions":[2.73E-1,4.9191132E-2,8.191E2,5.90482E-3,-3.8200397E-2],"split_indices":[28,0,23,0,0],"split_type":[0,0,0,0,0],"sum_hessian":[5.1781244E0,2.256181E0,2.9219434E0,1.5890653E0,1.3328781E0],"tree_param":{"num_deleted":"0","num_feature":"30","num_nodes":"5","size_leaf_vector":"1"}},{"base_weights":[-9.890261E-3,4.343402E-2,-2.6496124E-1,3.8125378E-3,-4.4930104E-2],"categories":[],"categories_nodes":[],"categories_segments":[],"categories_sizes":[],"default_left":[0,0,0,0,0],"id":72,"left_children":[1,-1,3,-1,-1],"loss_changes":[8.391906E-1,0E0,3.3305466E-1,0E0,0E0],"parents":[2147483647,0,0,2,2],"right_children":[2,-1,4,-1,-1],"split_conditions":[2.08E-1,4.343402E-2,2.553E1,3.8125378E-3,-4.4930104E-2],"split_indices":[26,0,21,0,0],"split_type":[0,0,0,0,0],"sum_hessian":[5.5399632E0,1.6213531E0,3.91861E0,1.5767921E0,2.3418179E0],"tree_param":{"num_deleted":"0","num_feature":"30","num_nodes":"5","size_leaf_vector":"1"}},{"base_weights":[-1.1115243E-1,1.0350114E-1,-4.4624805E-2,4.56651E-2,-1.3286565E-1,6.32018E-3,-3.4687553E-2],"categories":[],"categories_nodes":[],"categories_segments":[],"categories_sizes":[],"default_left":[0,0,0,0,0,0,0],"id":73,"left_children":[1,3,-1,-1,5,-1,-1],"loss_changes":[5.4781127E-1,4.7621137E-1,0E0,0E0,1.910577E-1,0E0,0E0],"parents":[2147483647,0,0,1,1,4,4],"right_children":[2,4,-1,-1,6,-1,-1],"split_conditions":[3.574E1,2.584E1,-4.4624805E-2,4.56651E-2,1.358E-1,6.32018E-3,-3.4687553E-2],"split_indices":[13,21,0,0,24,0,0],"split_type":[0,0,0,0,0,0,0],"sum_hessian":[5.497328E0,3.590228E0,1.9070997E0,1.2354639E0,2.3547642E0,1.3527957E0,1.0019685E0],"tree_param":{"num_deleted":"0","num_feature":"30","num_nodes":"7","size_leaf_vector":"1"}},{"base_weights":[-2.1090653E-2,-4.0814895E-2,1.704919E-1,4.3747878E-1,-2.5071252E-2,5.367711E-2,6.3411254E-3],"categories":[],"categories_nodes":[],"categories_segments":[],"categories_sizes":[],"default_left":[0,0,0,0,0,0,0],"id":74,"left_children":[1,-1,3,5,-1,-1,-1],"loss_changes":[5.828074E-1,0E0,6.847588E-1,3.734708E-2,0E0,0E0,0E0],"parents":[2147483647,0,0,2,2,3,3],"right_children":[2,-1,4,6,-1,-1,-1],"split_conditions":[6.095E-2,-4.0814895E-2,1.456E-1,7.486E-2,-2.5071252E-2,5.367711E-2,6.3411254E-3],"split_indices":[5,0,27,6,0,0,0],"split_type":[0,0,0,0,0,0,0],"sum_hessian":[5.6005626E0,1.6528451E0,3.9477172E0,2.5378432E0,1.409874E0,1.4505272E0,1.0873162E0],"tree_param":{"num_deleted":"0","num_feature":"30","num_nodes":"7","size_leaf_vector":"1"}},{"base_weights":[-0E0,3.0329606E-2,-2.1611486E-1,1.8576024E-2,-4.7267932E-2],"categories":[],"categories_nodes":[],"categories_segments":[],"categories_sizes":[],"default_left":[0,0,0,0,0],"id":75,"left_children":[1,-1,3,-1,-1],"loss_changes":[4.8269257E-1,0E0,5.791591E-1,0E0,0E0],"parents":[2147483647,0,0,2,2],"right_children":[2,-1,4,-1,-1],"split_conditions":[9.055E-2,3.0329606E-2,2.331E1,1.8576024E-2,-4.7267932E-2],"split_indices":[4,0,21,0,0],"split_type":[0,0,0,0,0],"sum_hessian":[5.4562182E0,1.9690078E0,3.4872103E0,1.314469E0,2.1727412E0],"tree_param":{"num_deleted":"0","num_feature":"30","num_nodes":"5","size_leaf_vector":"1"}},{"base_weights":[-0E0,2.9719305E-1,-2.0643723E-1,4.699611E-2,-0E0,1.9966029E-2,-4.2220184E-1,-3.2797605E-3,-5.9364945E-2],"categories":[],"categories_nodes":[],"categories_segments":[],"categories_sizes":[],"default_left":[0,0,0,0,0,0,0,0,0],"id":76,"left_children":[1,3,5,-1,-1,-1,7,-1,-1],"loss_changes":[4.648183E-1,1.9222191E-1,4.9189198E-1,0E0,0E0,0E0,1.4179176E-1,0E0,0E0],"parents":[2147483647,0,0,1,1,2,2,6,6],"right_children":[2,4,6,-1,-1,-1,8,-1,-1],"split_conditions":[9.055E-2,2.683E-1,1.7E1,4.699611E-2,-0E0,1.9966029E-2,3.133E1,-3.2797605E-3,-5.9364945E-2],"split_indices":[4,28,1,0,0,0,13,0,0],"split_type":[0,0,0,0,0,0,0,0,0],"sum_hessian":[5.5385165E0,2.140726E0,3.3977902E0,1.1263031E0,1.0144231E0,1.044005E0,2.3537853E0,1.2620018E0,1.0917834E0],"tree_param":{"num_deleted":"0","num_feature":"30","num_nodes":"9","size_leaf_vector":"1"}},{"base_weights":[-0E0,2.8709412E-1,-2.6223275E-1,4.9302027E-2,-0E0,5.219694E-3,-4.453844E-2],"categories":[],"categories_nodes":[],"categories_segments":[],"categories_sizes":[],"default_left":[0,0,0,0,0,0,0],"id":77,"left_children":[1,3,5,-1,-1,-1,-1],"loss_changes":[5.529075E-1,2.3173124E-1,2.727189E-1,0E0,0E0,0E0,0E0],"parents":[2147483647,0,0,1,1,2,2],"right_children":[2,4,6,-1,-1,-1,-1],"split_conditions":[7.689E2,9.947E-2,1.767E1,4.9302027E-2,-0E0,5.219694E-3,-4.453844E-2],"split_indices":[23,4,1,0,0,0,0],"split_type":[0,0,0,0,0,0,0],"sum_hessian":[5.312822E0,2.6636012E0,2.6492207E0,1.1956582E0,1.467943E0,1.0373455E0,1.6118753E0],"tree_param":{"num_deleted":"0","num_feature":"30","num_nodes":"7","size_leaf_vector":"1"}},{"base_weights":[-1.7960344E-2,3.1296544E-2,-2.266026E-1,1.30092455E-2,-4.4128697E-2],"categories":[],"categories_nodes":[],"categories_segments":[],"categories_sizes":[],"default_left":[0,0,0,0,0],"id":78,"left_children":[1,-1,3,-1,-1],"loss_changes":[4.666714E-1,0E0,4.2220974E-1,0E0,0E0],"parents":[2147483647,0,0,2,2],"right_children":[2,-1,4,-1,-1],"split_conditions":[2.331E1,3.1296544E-2,8.704E-2,1.30092455E-2,-4.4128697E-2],"split_indices":[21,0,27,0,0],"split_type":[0,0,0,0,0],"sum_hessian":[4.8568807E0,1.4993984E0,3.3574822E0,1.23454E0,2.1229422E0],"tree_param":{"num_deleted":"0","num_feature":"30","num_nodes":"5","size_leaf_vector":"1"}},{"base_weights":[-2.8887717E-3,1.6579296E-1,-3.6146823E-2,5.1466584E-2,-5.6214523E-2,-3.3719767E-2,2.6532738E-2],"categories":[],"categories_nodes":[],"categories_segments":[],"categories_sizes":[],"default_left":[0,0,0,0,0,0,0],"id":79,"left_children":[1,3,-1,-1,5,-1,-1],"loss_changes":[4.6298257E-1,4.4714248E-1,0E0,0E0,4.2772508E-1,0E0,0E0],"parents":[2147483647,0,0,1,1,4,4],"right_children":[2,4,-1,-1,6,-1,-1],"split_conditions":[6.988E2,9.04E-2,-3.6146823E-2,5.1466584E-2,2.079E-2,-3.3719767E-2,2.6532738E-2],"split_indices":[3,4,0,0,18,0,0],"split_type":[0,0,0,0,0,0,0],"sum_hessian":[5.3401017E0,3.8076713E0,1.5324305E0,1.1432748E0,2.6643965E0,1.5618593E0,1.1025372E0],"tree_param":{"num_deleted":"0","num_feature":"30","num_nodes":"7","size_leaf_vector":"1"}},{"base_weights":[1.6640699E-2,3.6149353E-2,-1.8323901E-1,8.6484775E-3,-3.7437037E-2],"categories":[],"categories_nodes":[],"categories_segments":[],"categories_sizes":[],"default_left":[0,0,0,0,0],"id":80,"left_children":[1,-1,3,-1,-1],"loss_changes":[5.035591E-1,0E0,2.845341E-1,0E0,0E0],"parents":[2147483647,0,0,2,2],"right_children":[2,-1,4,-1,-1],"split_conditions":[2.08E-1,3.6149353E-2,7.689E2,8.6484775E-3,-3.7437037E-2],"split_indices":[26,0,23,0,0],"split_type":[0,0,0,0,0],"sum_hessian":[5.0858765E0,1.7530615E0,3.332815E0,1.3923074E0,1.9405075E0],"tree_param":{"num_deleted":"0","num_feature":"30","num_nodes":"5","size_leaf_vector":"1"}},{"base_weights":[-7.085538E-2,2.587418E-2,-2.6839536E-1,-5.05943E-2,3.9746393E-3],"categories":[],"categories_nodes":[],"categories_segments":[],"categories_sizes":[],"default_left":[0,0,0,0,0],"id":81,"left_children":[1,-1,3,-1,-1],"loss_changes":[4.6801746E-1,0E0,3.9604068E-1,0E0,0E0],"parents":[2147483647,0,0,2,2],"right_children":[2,-1,4,-1,-1],"split_conditions":[2.331E1,2.587418E-2,1.5E-2,-5.05943E-2,3.9746393E-3],"split_indices":[21,0,15,0,0],"split_type":[0,0,0,0,0],"sum_hessian":[5.106826E0,1.6079315E0,3.4988942E0,1.7965423E0,1.7023518E0],"tree_param":{"num_deleted":"0","num_feature":"30","num_nodes":"5","size_leaf_vector":"1"}},{"base_weights":[-2.0840915E-2,3.3286404E-2,-1.9774702E-1,1.0583363E-2,-3.607965E-1,-5.3540975E-2,-2.3411082E-4],"categories":[],"categories_nodes":[],"categories_segments":[],"categories_sizes":[],"default_left":[0,0,0,0,0,0,0],"id":82,"left_children":[1,-1,3,-1,5,-1,-1],"loss_changes":[4.2525604E-1,0E0,3.007223E-1,0E0,1.6758531E-1,0E0,0E0],"parents":[2147483647,0,0,2,2,4,4],"right_children":[2,-1,4,-1,6,-1,-1],"split_conditions":[2.053E1,3.3286404E-2,2.319E1,1.0583363E-2,1.515E-2,-5.3540975E-2,-2.3411082E-4],"split_indices":[13,0,21,0,15,0,0],"split_type":[0,0,0,0,0,0,0],"sum_hessian":[4.9601984E0,1.1713505E0,3.7888477E0,1.2322084E0,2.5566394E0,1.1996334E0,1.3570061E0],"tree_param":{"num_deleted":"0","num_feature":"30","num_nodes":"7","size_leaf_vector":"1"}},{"base_weights":[-5.7545546E-3,-4.1467573E-2,1.9020501E-1,4.2261194E-2,-1.8857775E-2],"categories":[],"categories_nodes":[],"categories_segments":[],"categories_sizes":[],"default_left":[0,0,0,0,0],"id":83,"left_children":[1,-1,3,-1,-1],"loss_changes":[5.869784E-1,0E0,5.0958467E-1,0E0,0E0],"parents":[2147483647,0,0,2,2],"right_children":[2,-1,4,-1,-1],"split_conditions":[1.203E-2,-4.1467573E-2,1.456E-1,4.2261194E-2,-1.8857775E-2],"split_indices":[15,0,27,0,0],"split_type":[0,0,0,0,0],"sum_hessian":[5.0607224E0,1.4432279E0,3.6174946E0,2.3338342E0,1.2836605E0],"tree_param":{"num_deleted":"0","num_feature":"30","num_nodes":"5","size_leaf_vector":"1"}},{"base_weights":[-5.443329E-2,-4.1808944E-2,1.2384648E-1,3.496037E-1,-2.7513836E-2,5.028106E-2,-0E0],"categories":[],"categories_nodes":[],"categories_segments":[],"categories_sizes":[],"default_left":[0,0,0,0,0,0,0],"id":84,"left_children":[1,-1,3,5,-1,-1,-1],"loss_changes":[4.6841428E-1,0E0,5.174953E-1,1.8038541E-1,0E0,0E0,0E0],"parents":[2147483647,0,0,2,2,3,3],"right_children":[2,-1,4,6,-1,-1,-1],"split_conditions":[1.203E-2,-4.1808944E-2,1.599E-1,8.082E2,-2.7513836E-2,5.028106E-2,-0E0],"split_indices":[15,0,27,23,0,0,0],"split_type":[0,0,0,0,0,0,0],"sum_hessian":[4.972481E0,1.3778069E0,3.5946739E0,2.5348084E0,1.0598654E0,1.4223683E0,1.1124402E0],"tree_param":{"num_deleted":"0","num_feature":"30","num_nodes":"7","size_leaf_vector":"1"}},{"base_weights":[-1.7446257E-2,3.0202094E-2,-1.7364042E-1,7.746742E-3,-3.7519563E-2],"categories":[],"categories_nodes":[],"categories_segments":[],"categories_sizes":[],"default_left":[0,0,0,0,0],"id":85,"left_children":[1,-1,3,-1,-1],"loss_changes":[3.2801908E-1,0E0,2.9809013E-1,0E0,0E0],"parents":[2147483647,0,0,2,2],"right_children":[2,-1,4,-1,-1],"split_conditions":[1.594E1,3.0202094E-2,2.683E-1,7.746742E-3,-3.7519563E-2],"split_indices":[1,0,28,0,0],"split_type":[0,0,0,0,0],"sum_hessian":[4.7799683E0,1.0528E0,3.727168E0,1.7127926E0,2.0143754E0],"tree_param":{"num_deleted":"0","num_feature":"30","num_nodes":"5","size_leaf_vector":"1"}},{"base_weights":[-2.0755867E-2,-3.6906533E-2,1.3658603E-1,3.3831578E-1,-2.400197E-2,5.4140236E-2,-3.4926736E-4],"categories":[],"categories_nodes":[],"categories_segments":[],"categories_sizes":[],"default_left":[0,0,0,0,0,0,0],"id":86,"left_children":[1,-1,3,5,-1,-1,-1],"loss_changes":[4.0655553E-1,0E0,4.493456E-1,3.0968916E-1,0E0,0E0,0E0],"parents":[2147483647,0,0,2,2,3,3],"right_children":[2,-1,4,6,-1,-1,-1],"split_conditions":[1.203E-2,-3.6906533E-2,9.282E2,1.38E-1,-2.400197E-2,5.4140236E-2,-3.4926736E-4],"split_indices":[15,0,23,24,0,0,0],"split_type":[0,0,0,0,0,0,0],"sum_hessian":[5.074383E0,1.3580298E0,3.716353E0,2.6591656E0,1.0571874E0,1.4852978E0,1.1738678E0],"tree_param":{"num_deleted":"0","num_feature":"30","num_nodes":"7","size_leaf_vector":"1"}},{"base_weights":[6.133663E-2,3.0899552E-1,-2.0231359E-1,5.1347543E-2,-7.9436024E-4,-0E0,-3.4929704E-2],"categories":[],"categories_nodes":[],"categories_segments":[],"categories_sizes":[],"default_left":[0,0,0,0,0,0,0],"id":87,"left_children":[1,3,5,-1,-1,-1,-1],"loss_changes":[4.5206115E-1,2.86855E-1,1.20007634E-1,0E0,0E0,0E0,0E0],"parents":[2147483647,0,0,1,1,2,2],"right_children":[2,4,6,-1,-1,-1,-1],"split_conditions":[2.02E1,9.366E-2,7.669E2,5.1347543E-2,-7.9436024E-4,-0E0,-3.4929704E-2],"split_indices":[1,6,23,0,0,0,0],"split_type":[0,0,0,0,0,0,0],"sum_hessian":[4.8025436E0,2.583264E0,2.2192798E0,1.3850687E0,1.1981953E0,1.1556898E0,1.0635899E0],"tree_param":{"num_deleted":"0","num_feature":"30","num_nodes":"7","size_leaf_vector":"1"}},{"base_weights":[-9.038364E-2,2.855729E-2,-2.559121E-1,6.9426605E-3,-4.2856908E-1,-0E0,-6.0069393E-2],"categories":[],"categories_nodes":[],"categories_segments":[],"categories_sizes":[],"default_left":[0,0,0,0,0,0,0],"id":88,"left_children":[1,-1,3,-1,5,-1,-1],"loss_changes":[4.2134854E-1,0E0,3.2578474E-1,0E0,2.3483706E-1,0E0,0E0],"parents":[2147483647,0,0,2,2,4,4],"right_children":[2,-1,4,-1,6,-1,-1],"split_conditions":[2.182E1,2.855729E-2,6.483E2,6.9426605E-3,2.733E-1,-0E0,-6.0069393E-2],"split_indices":[21,0,23,0,28,0,0],"split_type":[0,0,0,0,0,0,0],"sum_hessian":[4.6439743E0,1.0132608E0,3.6307135E0,1.2652687E0,2.365445E0,1.0015463E0,1.3638986E0],"tree_param":{"num_deleted":"0","num_feature":"30","num_nodes":"7","size_leaf_vector":"1"}},{"base_weights":[-0E0,3.5618555E-2,-1.9814515E-1,6.9813295E-3,-3.5609912E-2],"categories":[],"categories_nodes":[],"categories_segments":[],"categories_sizes":[],"default_left":[0,0,0,0,0],"id":89,"left_children":[1,-1,3,-1,-1],"loss_changes":[4.583586E-1,0E0,2.2022773E-1,0E0,0E0],"parents":[2147483647,0,0,2,2],"right_children":[2,-1,4,-1,-1],"split_conditions":[6.483E2,3.5618555E-2,1.938E1,6.9813295E-3,-3.5609912E-2],"split_indices":[23,0,1,0,0],"split_type":[0,0,0,0,0],"sum_hessian":[4.333212E0,1.393736E0,2.939476E0,1.0622898E0,1.8771861E0],"tree_param":{"num_deleted":"0","num_feature":"30","num_nodes":"5","size_leaf_vector":"1"}}]},"name":"gbtree"},"learner_model_param":{"base_score":"[6.2637365E-1]","boost_from_average":"1","num_class":"0","num_feature":"30","num_target":"1"},"objective":{"name":"binary:logistic","reg_loss_param":{"scale_pos_weight":"1"}}},"version":[3,2,0]}